<?xml version="1.0"?>
<MethodSetup Method="DNN::DNN">
  <GeneralInfo>
    <Info name="TMVA Release" value="4.2.1 [262657]"/>
    <Info name="ROOT Release" value="6.18/04 [397828]"/>
    <Info name="Creator" value="aman"/>
    <Info name="Date" value="Tue Nov 24 12:09:08 2020"/>
    <Info name="Host" value="Linux coast 5.4.0-29-generic #33-Ubuntu SMP Wed Apr 29 14:32:27 UTC 2020 x86_64 x86_64 x86_64 GNU/Linux"/>
    <Info name="Dir" value="/home/aman/root/LIPs/train6_dnn"/>
    <Info name="Training events" value="403150"/>
    <Info name="TrainingTime" value="2.73551446e+03"/>
    <Info name="AnalysisType" value="Classification"/>
  </GeneralInfo>
  <Options>
    <Option name="V" modified="No">False</Option>
    <Option name="VerbosityLevel" modified="No">Default</Option>
    <Option name="VarTransform" modified="No">None</Option>
    <Option name="H" modified="No">False</Option>
    <Option name="CreateMVAPdfs" modified="No">False</Option>
    <Option name="IgnoreNegWeightsInTraining" modified="No">False</Option>
    <Option name="Layout" modified="Yes">TANH|15,TANH|10,TANH|5,LINEAR</Option>
    <Option name="ValidationSize" modified="No">20%</Option>
    <Option name="ErrorStrategy" modified="No">CROSSENTROPY</Option>
    <Option name="WeightInitialization" modified="No">XAVIER</Option>
    <Option name="Architecture" modified="Yes">GPU</Option>
    <Option name="TrainingStrategy" modified="No">LearningRate=1e-1,Momentum=0.3,Repetitions=3,ConvergenceSteps=50,BatchSize=30,TestRepetitions=7,WeightDecay=0.0,Renormalize=L2,DropConfig=0.0,DropRepetitions=5|LearningRate=1e-4,Momentum=0.3,Repetitions=3,ConvergenceSteps=50,BatchSize=20,TestRepetitions=7,WeightDecay=0.001,Renormalize=L2,DropConfig=0.0+0.5+0.5,DropRepetitions=5,Multithreading=True</Option>
  </Options>
  <Variables NVar="15">
    <Variable VarIndex="0" Expression="Edep1" Label="Edep1" Title="Edep1" Unit="" Internal="Edep1" Type="F" Min="0.00000000e+00" Max="7.37154770e+01"/>
    <Variable VarIndex="1" Expression="Edep2" Label="Edep2" Title="Edep2" Unit="" Internal="Edep2" Type="F" Min="0.00000000e+00" Max="6.67621155e+01"/>
    <Variable VarIndex="2" Expression="Edep3" Label="Edep3" Title="Edep3" Unit="" Internal="Edep3" Type="F" Min="0.00000000e+00" Max="7.02827301e+01"/>
    <Variable VarIndex="3" Expression="Edep4" Label="Edep4" Title="Edep4" Unit="" Internal="Edep4" Type="F" Min="0.00000000e+00" Max="6.99244614e+01"/>
    <Variable VarIndex="4" Expression="Edep5" Label="Edep5" Title="Edep5" Unit="" Internal="Edep5" Type="F" Min="0.00000000e+00" Max="7.41126099e+01"/>
    <Variable VarIndex="5" Expression="Edep6" Label="Edep6" Title="Edep6" Unit="" Internal="Edep6" Type="F" Min="0.00000000e+00" Max="6.73483810e+01"/>
    <Variable VarIndex="6" Expression="Edep7" Label="Edep7" Title="Edep7" Unit="" Internal="Edep7" Type="F" Min="0.00000000e+00" Max="6.84781265e+01"/>
    <Variable VarIndex="7" Expression="Edep8" Label="Edep8" Title="Edep8" Unit="" Internal="Edep8" Type="F" Min="0.00000000e+00" Max="6.86814880e+01"/>
    <Variable VarIndex="8" Expression="Edep9" Label="Edep9" Title="Edep9" Unit="" Internal="Edep9" Type="F" Min="0.00000000e+00" Max="7.09674454e+01"/>
    <Variable VarIndex="9" Expression="Edep10" Label="Edep10" Title="Edep10" Unit="" Internal="Edep10" Type="F" Min="0.00000000e+00" Max="7.22710190e+01"/>
    <Variable VarIndex="10" Expression="Edep11" Label="Edep11" Title="Edep11" Unit="" Internal="Edep11" Type="F" Min="0.00000000e+00" Max="6.72124481e+01"/>
    <Variable VarIndex="11" Expression="Edep12" Label="Edep12" Title="Edep12" Unit="" Internal="Edep12" Type="F" Min="0.00000000e+00" Max="7.10000687e+01"/>
    <Variable VarIndex="12" Expression="Edep13" Label="Edep13" Title="Edep13" Unit="" Internal="Edep13" Type="F" Min="0.00000000e+00" Max="7.53640747e+01"/>
    <Variable VarIndex="13" Expression="Edep14" Label="Edep14" Title="Edep14" Unit="" Internal="Edep14" Type="F" Min="0.00000000e+00" Max="6.86384277e+01"/>
    <Variable VarIndex="14" Expression="Edep15" Label="Edep15" Title="Edep15" Unit="" Internal="Edep15" Type="F" Min="0.00000000e+00" Max="7.26423798e+01"/>
  </Variables>
  <Spectators NSpec="0"/>
  <Classes NClass="2">
    <Class Name="Signal" Index="0"/>
    <Class Name="Background" Index="1"/>
  </Classes>
  <Transformations NTransformations="0"/>
  <MVAPdfs/>
  <Weights InputWidth="15" Depth="4" LossFunction="C" OutputFunction="S">
    <Layer ActivationFunction="3">
      <Weights rows="15" cols="15">
        3.7555768489837646e+00 2.5977330207824707e+00 3.7640223503112793e+00 -9.1233056783676147e-01 -3.4515839815139771e-01 -2.7527737617492676e-01 -7.7619647979736328e-01 -4.3326562643051147e-01 -5.7889336347579956e-01 3.0121695995330811e+00 2.7391836643218994e+00 2.4879088401794434e+00 1.8958374261856079e+00 5.5925493240356445e+00 5.5245161056518555e-01 -4.1599804162979126e-01 -6.8150216341018677e-01 1.7054411172866821e+00 -1.0163238048553467e+00 -2.1387372016906738e+00 -2.8154128789901733e-01 -8.6976557970046997e-01 -2.5727745890617371e-01 1.4476423263549805e+00 3.3876299858093262e-01 3.1410011649131775e-01 -3.1230714917182922e-01 -1.7480159997940063e+00 -9.2650741338729858e-01 -2.1696397662162781e-01 -6.5522998571395874e-01 -6.3981103897094727e-01 -6.2568526268005371e+00 -9.2538231611251831e-01 -6.8534857034683228e-01 -4.5138807296752930e+00 -9.5438295602798462e-01 -7.0084351301193237e-01 -4.7405447959899902e+00 -4.9017527699470520e-01 -4.3918259441852570e-02 -5.4420871734619141e+00 -2.9309800267219543e-01 -3.1370930671691895e+00 -2.2621283531188965e+00 -7.3098069429397583e-01 -3.8872274756431580e-01 -3.6347323656082153e-01 -5.6168323755264282e-01 -2.9826346039772034e-01 -5.0032424926757812e-01 8.0448716878890991e-02 -3.0431961640715599e-02 2.2571407258510590e-01 -4.5629265904426575e-01 -3.2500013709068298e-01 -7.6540029048919678e-01 -3.7949219346046448e-01 -4.1524314880371094e-01 -5.3739327192306519e-01 5.0395494699478149e-01 -7.2671689987182617e+00 -1.7135500907897949e-01 5.5606663227081299e-01 -7.6866836547851562e+00 -1.7889409065246582e+00 3.1172245740890503e-01 -8.3734493255615234e+00 -1.2105758190155029e+00 3.1427580118179321e-01 -5.3733301162719727e+00 -2.6234182715415955e-01 6.8600773811340332e-01 9.4336301088333130e-02 2.8044847771525383e-02 -1.4748190641403198e+00 -3.6040086746215820e+00 6.3029706478118896e-01 -9.1081392765045166e-01 -2.8116273880004883e+00 -3.5400483012199402e-01 -1.0973175764083862e+00 -2.7678146362304688e+00 -7.1968138217926025e-01 -4.6354955434799194e-01 -3.9442613124847412e+00 4.8671182990074158e-01 -2.6698236465454102e+00 -6.4162719249725342e-01 -4.0927457809448242e+00 -6.4129519462585449e-01 -6.7492568492889404e-01 2.9582121372222900e+00 3.3396155834197998e+00 -5.1786512136459351e-01 1.1671446561813354e+00 1.4239993095397949e+00 -3.9597696065902710e-01 3.8935625553131104e+00 -1.4085657596588135e+00 -1.3404682874679565e+00 2.3918721675872803e+00 -2.0539206266403198e-01 4.2494897842407227e+00 2.5482571125030518e+00 7.7978520393371582e+00 1.9369374513626099e+00 -1.0136424005031586e-01 7.1691164970397949e+00 2.2949194908142090e+00 3.9149682521820068e+00 7.1323094367980957e+00 2.1737258434295654e+00 3.4823906421661377e+00 7.5128569602966309e+00 1.0811054706573486e+00 1.3246589899063110e+00 7.2304162979125977e+00 5.7067217826843262e+00 3.4423580169677734e+00 1.2686520814895630e-01 8.4768748283386230e-01 -1.7015407085418701e+00 -3.3546309471130371e+00 -2.2114055156707764e+00 1.9006955623626709e-01 -3.1456582546234131e+00 -3.1744561195373535e+00 2.3460157215595245e-01 -2.8098599910736084e+00 -2.5595476627349854e+00 -2.7473819255828857e+00 -1.9445999860763550e+00 9.2368257045745850e-01 -1.5360255241394043e+00 1.8527358770370483e-01 -4.9701052904129028e-01 -5.9183633327484131e-01 -8.6579829454421997e-02 -7.3999595642089844e-01 -7.5159859657287598e-01 -1.0662348270416260e+00 -2.2082714736461639e-01 -7.9411703348159790e-01 -7.9756706953048706e-01 -4.8424220085144043e-01 7.7903255820274353e-02 -8.2151567935943604e-01 -7.2228699922561646e-01 -5.1498550176620483e-01 -5.1375031471252441e-01 -3.4624996781349182e-01 -4.5525139570236206e-01 -5.7118415832519531e-01 -2.9065534472465515e-01 -1.1553647369146347e-01 -5.5865478515625000e-01 -5.9553027153015137e-01 -5.1203370094299316e-01 -3.3831557631492615e-01 -5.4896831512451172e-01 -7.0773357152938843e-01 1.3367246091365814e-01 1.2176242470741272e-01 4.7242355346679688e-01 -8.1134957075119019e-01 -3.0600339174270630e-01 4.7902525402605534e-03 -3.7890654802322388e-01 -5.2529072761535645e-01 -5.5083262920379639e-01 -5.0550859421491623e-02 -8.0822330713272095e-01 -5.2944278717041016e-01 -2.6301148533821106e-01 -8.3962255716323853e-01 -9.4464993476867676e-01 -4.9126338958740234e-01 -4.3969163298606873e-01 -6.3264444470405579e-02 -2.0680844783782959e+00 -1.9851812124252319e+00 -1.7112834751605988e-01 -2.0914494991302490e+00 -1.9210534095764160e+00 6.4506268501281738e-01 -2.0560526847839355e+00 -1.9998999834060669e+00 1.3915622234344482e+00 -2.1068747043609619e+00 -2.0770151615142822e+00 1.9245093688368797e-02 2.3904098570346832e-01 9.4048637151718140e-01 3.8523739576339722e-01 4.8641642928123474e-01 -9.8063790798187256e-01 -5.9031322598457336e-02 3.9554148912429810e-01 3.0333206057548523e-01 9.8485130071640015e-01 -8.5673439502716064e-01 -1.5263425111770630e+00 1.5255124866962433e-01 4.4747656583786011e-01 -8.8376551866531372e-01 1.1969007551670074e-01 1.4366590976715088e+00 1.1909067630767822e+00 4.5783597230911255e-01 -1.3296630978584290e-01 2.7756425738334656e-01 3.0898192524909973e-01 -2.0808641612529755e-01 -1.0845900774002075e+00 -9.5811480283737183e-01 -1.0692592710256577e-01 -1.2507818937301636e+00 -3.6344432830810547e-01 -1.7479936778545380e-01 -6.1095750331878662e-01 -7.5699591636657715e-01 -5.0388938188552856e-01 -3.1301817297935486e-01 5.3472679853439331e-01 
      </Weights>
      <Biases rows="15" cols="1">
        4.0332713723182678e-01 -4.4736042022705078e+00 1.2560442090034485e-01 1.2774456024169922e+01 2.2310706973075867e-01 1.0007106065750122e+00 5.2953231334686279e-01 -2.7780187129974365e-01 -3.6792078614234924e-01 1.4719785690307617e+01 1.4257224082946777e+01 -4.4438543319702148e+00 5.3082704544067383e+00 -3.7059376239776611e+00 -4.8689098358154297e+00 
      </Biases>
    </Layer>
    <Layer ActivationFunction="3">
      <Weights rows="10" cols="15">
        -1.1660267114639282e+00 1.4795830249786377e+00 -7.0300549268722534e-01 -1.0316503047943115e+00 2.6330313086509705e-01 4.5333537459373474e-01 4.2465358972549438e-01 6.7968392372131348e-01 6.3041144609451294e-01 -5.7652992010116577e-01 -3.7996947765350342e-01 1.4331125020980835e+00 1.1437605619430542e+00 1.9328265190124512e+00 -7.9393446445465088e-01 2.2379660606384277e+00 2.9187738895416260e+00 1.9444100856781006e+00 2.4583461284637451e+00 -1.7535790205001831e+00 1.2647552490234375e+00 2.5836107730865479e+00 -1.5862228870391846e+00 -2.2582826614379883e+00 2.0661325454711914e+00 2.9880509376525879e+00 8.3585083484649658e-01 -1.7920947074890137e-01 2.7882411479949951e+00 1.5243282914161682e-01 1.9477311372756958e+00 7.1809345483779907e-01 -3.5126247406005859e+00 1.0433576107025146e+00 -5.8965313434600830e-01 1.6271393299102783e+00 3.5880923271179199e-01 6.9663596153259277e-01 -1.6538921594619751e+00 1.2828509807586670e+00 1.7400188446044922e+00 9.6352094411849976e-01 -2.5155222415924072e-01 6.6740334033966064e-01 5.9904050827026367e-01 -5.9746891260147095e-01 3.6571556329727173e-01 1.5999649763107300e+00 -1.3803822994232178e+00 1.7500448226928711e+00 -1.9061884880065918e+00 -6.5091341733932495e-01 -2.6309061050415039e-01 -1.1573610305786133e+00 -8.3362942934036255e-01 -1.4208406209945679e+00 -7.4170976877212524e-02 -5.2724575996398926e-01 4.0502166748046875e-01 8.9464485645294189e-01 9.8976954817771912e-02 -6.6543143987655640e-01 -2.7125515937805176e+00 1.3576696813106537e-01 4.8353356122970581e-01 1.2112630605697632e+00 1.7407336235046387e+00 -5.2133598327636719e+00 -2.8396008536219597e-02 4.7703411430120468e-02 4.9730429053306580e-01 5.8398216962814331e-01 2.1165910363197327e-01 -9.4443124532699585e-01 -5.6523177772760391e-02 6.5663748979568481e-01 -1.1113942861557007e+00 5.1602011919021606e-01 1.4240300655364990e-01 -4.9856817722320557e-01 8.1828409433364868e-01 7.4229210615158081e-01 2.6251576840877533e-02 -2.1530646085739136e-01 5.9240557253360748e-02 -1.4486920088529587e-02 -2.5640442967414856e-01 3.2144351005554199e+00 3.4826514124870300e-01 -8.9594936370849609e-01 -1.1155612468719482e+00 -9.8854331299662590e-03 3.3219082355499268e+00 2.2208997607231140e-01 -2.5522131919860840e+00 8.3143222332000732e-01 -2.9152412414550781e+00 -3.7822034358978271e+00 1.5275737047195435e+00 -7.1192991733551025e-01 -3.6310784518718719e-02 5.0774157047271729e-01 1.7803133726119995e+00 1.1806584894657135e-01 -8.5998028516769409e-02 4.5595809817314148e-01 -2.7693152427673340e-01 -1.0534706115722656e+00 1.6066246032714844e+00 1.6222634911537170e-01 5.0372546911239624e-01 -6.0301661491394043e-01 1.0647422075271606e+00 2.3067195713520050e-01 1.3817399740219116e+00 1.0770907402038574e+00 7.8049939870834351e-01 -5.1495933532714844e-01 -5.2814286947250366e-01 -1.1250373125076294e+00 1.1558771878480911e-01 -9.9125623703002930e-01 1.2434089928865433e-01 -7.0762974023818970e-01 4.5099735260009766e+00 4.7241511344909668e+00 -5.7784718275070190e-01 -1.5753576159477234e-01 1.5386575460433960e+00 -1.0961639881134033e+00 1.0641899704933167e-01 6.2932193279266357e-01 1.0886013507843018e+00 3.5465243458747864e-01 1.1365258693695068e+00 -5.7436168193817139e-01 1.0630831718444824e+00 -3.1724545359611511e-01 -9.4014894962310791e-01 -1.8679846823215485e-01 1.5198785066604614e+00 -8.4926468133926392e-01 2.4117015302181244e-02 1.0058497190475464e+00 -7.9279226064682007e-01 -1.1017043590545654e+00 7.5885665416717529e-01 -1.4568841457366943e+00 4.3430745601654053e-01 1.2757791280746460e+00 
      </Weights>
      <Biases rows="10" cols="1">
        3.2017111778259277e-01 -1.8335218429565430e+00 -1.3825048208236694e+00 2.6049385070800781e+00 -3.8504591584205627e-01 1.0459148883819580e+00 6.5539658069610596e-02 -1.5477931499481201e+00 1.7919982671737671e+00 2.0133028030395508e+00 
      </Biases>
    </Layer>
    <Layer ActivationFunction="3">
      <Weights rows="5" cols="10">
        -1.7088549137115479e+00 -1.1787641793489456e-01 2.6459140777587891e+00 -4.9437478184700012e-01 -2.4568152427673340e+00 2.2266473770141602e+00 -4.3460125923156738e+00 1.3996226787567139e+00 -1.8072358369827271e+00 -2.1912856101989746e+00 9.4299685955047607e-01 5.1508974283933640e-02 -8.5295456647872925e-01 1.6551170349121094e+00 1.4451436698436737e-01 -1.4365829229354858e+00 8.6392557621002197e-01 -7.7088940143585205e-01 9.1650235652923584e-01 1.5545088052749634e+00 1.5616046190261841e+00 -5.7422131299972534e-01 -7.1653854846954346e-01 -6.6090345382690430e-01 1.8276667594909668e-01 -1.2040405273437500e+00 1.4904373884201050e+00 -8.3614468574523926e-01 -1.1847237348556519e+00 1.7464733123779297e+00 -1.9277580082416534e-01 -5.3652817010879517e-01 -5.2975827455520630e-01 -1.6797090768814087e+00 -1.2941176891326904e+00 1.9368480443954468e+00 -2.5449292659759521e+00 -1.5108957290649414e+00 7.1274501085281372e-01 1.6958237886428833e+00 1.1661036014556885e+00 4.6599632501602173e-01 2.5087663531303406e-01 -6.7661666870117188e-01 -8.4624290466308594e-01 -2.1736292839050293e+00 -1.8334816694259644e+00 6.1171871423721313e-01 -1.4441708326339722e+00 1.1506374925374985e-01 
      </Weights>
      <Biases rows="5" cols="1">
        2.8383960723876953e+00 7.3841381072998047e-01 1.2598297595977783e+00 -1.3037018775939941e+00 -3.1187913417816162e+00 
      </Biases>
    </Layer>
    <Layer ActivationFunction="0">
      <Weights rows="1" cols="5">
        -7.7625107765197754e-01 -7.3584824800491333e-01 -2.3924905061721802e-01 -1.5767733752727509e-01 1.9948673248291016e-01 
      </Weights>
      <Biases rows="1" cols="1">
        1.2179034203290939e-01 
      </Biases>
    </Layer>
  </Weights>
</MethodSetup>
