<?xml version="1.0"?>
<MethodSetup Method="DNN::DNN">
  <GeneralInfo>
    <Info name="TMVA Release" value="4.2.1 [262657]"/>
    <Info name="ROOT Release" value="6.18/04 [397828]"/>
    <Info name="Creator" value="aman"/>
    <Info name="Date" value="Tue Nov 24 11:56:05 2020"/>
    <Info name="Host" value="Linux coast 5.4.0-29-generic #33-Ubuntu SMP Wed Apr 29 14:32:27 UTC 2020 x86_64 x86_64 x86_64 GNU/Linux"/>
    <Info name="Dir" value="/home/aman/root/LIPs/train7_dnn"/>
    <Info name="Training events" value="403150"/>
    <Info name="TrainingTime" value="1.84840336e+03"/>
    <Info name="AnalysisType" value="Classification"/>
  </GeneralInfo>
  <Options>
    <Option name="V" modified="No">False</Option>
    <Option name="VerbosityLevel" modified="No">Default</Option>
    <Option name="VarTransform" modified="No">None</Option>
    <Option name="H" modified="No">False</Option>
    <Option name="CreateMVAPdfs" modified="No">False</Option>
    <Option name="IgnoreNegWeightsInTraining" modified="No">False</Option>
    <Option name="Layout" modified="Yes">RELU|150,RELU|100,RELU|50,SOFTSIGN</Option>
    <Option name="ValidationSize" modified="No">20%</Option>
    <Option name="ErrorStrategy" modified="No">CROSSENTROPY</Option>
    <Option name="WeightInitialization" modified="No">XAVIER</Option>
    <Option name="Architecture" modified="Yes">GPU</Option>
    <Option name="TrainingStrategy" modified="Yes">LearningRate=1e-1,Momentum=0.3,Repetitions=3,ConvergenceSteps=20,BatchSize=30,TestRepetitions=10|LearningRate=1e-4,Momentum=0,Repetitions=3,ConvergenceSteps=50,BatchSize=30,TestRepetitions=10,Multithreading=True</Option>
  </Options>
  <Variables NVar="15">
    <Variable VarIndex="0" Expression="Edep1" Label="Edep1" Title="Edep1" Unit="" Internal="Edep1" Type="F" Min="0.00000000e+00" Max="7.37154770e+01"/>
    <Variable VarIndex="1" Expression="Edep2" Label="Edep2" Title="Edep2" Unit="" Internal="Edep2" Type="F" Min="0.00000000e+00" Max="6.67621155e+01"/>
    <Variable VarIndex="2" Expression="Edep3" Label="Edep3" Title="Edep3" Unit="" Internal="Edep3" Type="F" Min="0.00000000e+00" Max="7.02827301e+01"/>
    <Variable VarIndex="3" Expression="Edep4" Label="Edep4" Title="Edep4" Unit="" Internal="Edep4" Type="F" Min="0.00000000e+00" Max="6.99244614e+01"/>
    <Variable VarIndex="4" Expression="Edep5" Label="Edep5" Title="Edep5" Unit="" Internal="Edep5" Type="F" Min="0.00000000e+00" Max="7.41126099e+01"/>
    <Variable VarIndex="5" Expression="Edep6" Label="Edep6" Title="Edep6" Unit="" Internal="Edep6" Type="F" Min="0.00000000e+00" Max="6.73483810e+01"/>
    <Variable VarIndex="6" Expression="Edep7" Label="Edep7" Title="Edep7" Unit="" Internal="Edep7" Type="F" Min="0.00000000e+00" Max="6.84781265e+01"/>
    <Variable VarIndex="7" Expression="Edep8" Label="Edep8" Title="Edep8" Unit="" Internal="Edep8" Type="F" Min="0.00000000e+00" Max="6.86814880e+01"/>
    <Variable VarIndex="8" Expression="Edep9" Label="Edep9" Title="Edep9" Unit="" Internal="Edep9" Type="F" Min="0.00000000e+00" Max="7.09674454e+01"/>
    <Variable VarIndex="9" Expression="Edep10" Label="Edep10" Title="Edep10" Unit="" Internal="Edep10" Type="F" Min="0.00000000e+00" Max="7.22710190e+01"/>
    <Variable VarIndex="10" Expression="Edep11" Label="Edep11" Title="Edep11" Unit="" Internal="Edep11" Type="F" Min="0.00000000e+00" Max="6.72124481e+01"/>
    <Variable VarIndex="11" Expression="Edep12" Label="Edep12" Title="Edep12" Unit="" Internal="Edep12" Type="F" Min="0.00000000e+00" Max="7.10000687e+01"/>
    <Variable VarIndex="12" Expression="Edep13" Label="Edep13" Title="Edep13" Unit="" Internal="Edep13" Type="F" Min="0.00000000e+00" Max="7.53640747e+01"/>
    <Variable VarIndex="13" Expression="Edep14" Label="Edep14" Title="Edep14" Unit="" Internal="Edep14" Type="F" Min="0.00000000e+00" Max="6.86384277e+01"/>
    <Variable VarIndex="14" Expression="Edep15" Label="Edep15" Title="Edep15" Unit="" Internal="Edep15" Type="F" Min="0.00000000e+00" Max="7.26423798e+01"/>
  </Variables>
  <Spectators NSpec="0"/>
  <Classes NClass="2">
    <Class Name="Signal" Index="0"/>
    <Class Name="Background" Index="1"/>
  </Classes>
  <Transformations NTransformations="0"/>
  <MVAPdfs/>
  <Weights InputWidth="15" Depth="4" LossFunction="C" OutputFunction="S">
    <Layer ActivationFunction="1">
      <Weights rows="150" cols="15">
        5.7924021035432816e-02 -1.1661944389343262e+00 -6.7664623260498047e-01 -1.9514614343643188e+00 -6.1011891812086105e-02 1.2272769212722778e-01 -7.8742158412933350e-01 6.2480684369802475e-02 -1.3302009105682373e+00 -1.1748827695846558e+00 -9.5821100473403931e-01 -8.5667753219604492e-01 -1.8668043613433838e+00 -9.1202199459075928e-01 -9.3707019090652466e-01 -3.0990779399871826e-01 -8.8868796825408936e-01 3.4254929423332214e-01 5.3497362136840820e-01 -2.4988266825675964e-01 -8.1754989922046661e-02 6.2654018402099609e-01 6.8112897872924805e-01 2.5162908434867859e-01 -5.0707656145095825e-01 1.0273019969463348e-01 2.8099358081817627e-02 -8.1892341375350952e-01 -9.4436377286911011e-01 3.0810290947556496e-02 -1.1357959508895874e+00 2.8561428189277649e-01 3.3735209703445435e-01 -1.4348413944244385e+00 -1.5307671390473843e-02 3.4634453058242798e-01 -4.0713855624198914e-01 -1.8084976077079773e-01 3.3463066816329956e-01 -8.9192205667495728e-01 -1.3755387067794800e-01 6.7726188898086548e-01 -9.0966331958770752e-01 2.4921724572777748e-02 4.9739190936088562e-01 3.1545591354370117e-01 2.0523618161678314e-01 -8.9637374877929688e-01 8.7336653470993042e-01 -6.7055076360702515e-01 1.0701167397201061e-02 1.1448065191507339e-01 -4.8519766330718994e-01 -2.2607423365116119e-01 2.2440248727798462e-01 1.2378854304552078e-01 -9.5591944456100464e-01 -1.0035713911056519e+00 1.1748760938644409e-01 3.7618029117584229e-01 6.8199592828750610e-01 -1.1955545097589493e-01 -3.4530378878116608e-02 -9.9518531560897827e-01 6.8355190753936768e-01 -1.5600995719432831e-01 4.2812836170196533e-01 -1.4566154219210148e-02 -1.8283292651176453e-01 2.6559400558471680e-01 -3.5010296106338501e-01 6.7691475152969360e-02 -1.0792968422174454e-01 8.3730679750442505e-01 -5.0849431753158569e-01 -1.5361143276095390e-02 3.0886396765708923e-01 5.3781414031982422e-01 2.9743364453315735e-01 3.6756727844476700e-02 -1.4175949990749359e-01 -5.9935194253921509e-01 2.0495873689651489e-01 7.3951572179794312e-02 9.5538888126611710e-03 -2.0613256096839905e-01 -2.8664135932922363e-01 2.4334850907325745e-01 1.6394974291324615e-01 4.8141646385192871e-01 -3.9319014549255371e-01 4.4960775971412659e-01 -4.3603998422622681e-01 -1.5178962051868439e-01 4.0086513757705688e-01 -8.7780803442001343e-01 2.2552178800106049e-01 -6.0925060510635376e-01 3.8664197921752930e-01 1.6031372547149658e-01 -6.5678411722183228e-01 2.7377733588218689e-01 6.3738954067230225e-01 -1.5615842342376709e+00 4.4295430183410645e-01 3.7027812004089355e-01 -4.4333693385124207e-01 1.0923959314823151e-01 -1.9594660401344299e-01 8.0410569906234741e-02 -9.6251648664474487e-01 -7.3024131357669830e-02 -1.9548007845878601e-01 -9.9051609635353088e-02 -9.2235498130321503e-02 -1.0585719719529152e-02 3.4152695536613464e-01 5.2062734961509705e-02 -3.9207947254180908e-01 -1.9345330074429512e-02 -7.5008076429367065e-01 4.0455102920532227e-01 -1.4370295405387878e-01 3.3939209580421448e-01 -9.0969371795654297e-01 6.5146374702453613e-01 -1.2202212810516357e+00 3.8070839643478394e-01 5.2436006069183350e-01 -9.1704839468002319e-01 2.5180858373641968e-01 6.8508863449096680e-02 2.7309510111808777e-01 -1.2717459201812744e+00 4.8860204219818115e-01 3.8713416457176208e-01 9.2169773578643799e-01 6.7808932065963745e-01 8.8617181777954102e-01 5.5010598897933960e-01 2.5929290056228638e-01 3.8060101866722107e-01 1.2541919946670532e+00 2.5094968080520630e-01 2.8447210788726807e-01 9.2212790250778198e-01 5.0672531127929688e-01 4.5652338862419128e-01 1.0102357864379883e+00 4.5810475945472717e-01 -1.3426933288574219e+00 7.1095705032348633e-02 4.4044184684753418e-01 -5.0188857316970825e-01 6.4423906803131104e-01 3.4311261773109436e-01 -1.0415382385253906e+00 5.8425527811050415e-01 4.9025821685791016e-01 -9.0602123737335205e-01 3.0183470249176025e-01 4.3494218587875366e-01 -1.0893900394439697e+00 -6.9650501012802124e-01 2.5811177492141724e-01 3.0147331953048706e-01 1.3531833887100220e-01 2.8118532150983810e-02 5.8922886848449707e-01 8.1019759178161621e-01 3.2605776190757751e-01 2.1439848840236664e-01 1.9402332603931427e-01 1.2986236810684204e-01 5.1936519145965576e-01 8.4551787376403809e-01 3.0097699165344238e-01 4.6341177076101303e-02 -2.0550827682018280e-01 -4.6216708421707153e-01 -7.9710227251052856e-01 3.6037015914916992e-01 1.7372743785381317e-01 -1.6312018036842346e-01 4.6436506509780884e-01 -3.4469607472419739e-01 -2.9073327779769897e-01 -2.1509540081024170e-01 -1.2496610730886459e-01 -5.3423362970352173e-01 -1.9415262341499329e-01 -1.5329322218894958e-01 4.3188950419425964e-01 -5.0760942697525024e-01 2.6567983627319336e-01 -1.7027167975902557e-01 7.6757186651229858e-01 -5.5603340268135071e-02 -2.5296577811241150e-01 -4.7225195169448853e-01 1.7419826984405518e-01 6.9601422548294067e-01 1.7002439498901367e-01 -1.2204564809799194e+00 -3.8957813382148743e-01 -6.2586641311645508e-01 -8.9490872621536255e-01 5.1494354009628296e-01 2.0055620372295380e-01 -1.0542312860488892e+00 -4.5273196697235107e-01 5.7749074697494507e-01 5.7370878756046295e-02 6.1873793601989746e-01 4.8710275441408157e-02 -9.5857931300997734e-03 -6.2064272165298462e-01 3.6472669243812561e-01 3.4260940551757812e-01 -8.5285878181457520e-01 5.4299628734588623e-01 2.6130142807960510e-01 2.5505450367927551e-01 2.7180382609367371e-01 -3.3784872293472290e-01 -1.3462831974029541e+00 4.2058444023132324e-01 -2.3702027276158333e-02 -8.8937073945999146e-01 -2.6362645626068115e-01 -8.1658178567886353e-01 -1.2419507503509521e+00 2.4745278060436249e-01 -4.0713104605674744e-01 -1.2949595451354980e+00 -2.0383532345294952e-01 -6.2907576560974121e-01 -8.5888183116912842e-01 -4.2659875750541687e-01 -6.7970252037048340e-01 4.0295246243476868e-01 -6.8640345335006714e-01 -3.5763052105903625e-01 -4.4801533222198486e-01 -5.9308737516403198e-01 6.2726475298404694e-02 -3.8314610719680786e-01 -1.7785038053989410e-01 -3.8684627506881952e-03 3.8507419824600220e-01 8.9544510841369629e-01 -1.8958665430545807e-02 -1.9853243231773376e-01 1.7534402012825012e-01 6.0051214694976807e-01 1.1862527579069138e-01 4.0536972880363464e-01 3.5435763001441956e-01 1.0738469660282135e-01 8.9103706181049347e-02 9.8920948803424835e-02 -1.1555588990449905e-01 4.0777277946472168e-01 1.6172562539577484e-01 9.9914342164993286e-02 -3.7556082010269165e-02 -2.8539189696311951e-01 6.4687448740005493e-01 5.8172923326492310e-01 -2.2607010602951050e-01 2.7889579534530640e-01 1.2315491586923599e-01 -2.9635533690452576e-01 -4.9265135079622269e-02 2.2076055407524109e-01 1.2615078687667847e-01 -3.6143743991851807e-01 -1.2883989512920380e-01 -4.4603878259658813e-01 5.7360625267028809e-01 1.9956786930561066e-01 2.4231766164302826e-01 -6.1043715476989746e-01 3.2355457544326782e-01 5.9994500875473022e-01 2.7716293931007385e-01 3.3426675945520401e-02 4.0809500217437744e-01 -4.8544991016387939e-01 -2.9903513193130493e-01 -1.7937731742858887e-01 3.4462296962738037e-01 9.1010975837707520e-01 7.1122944355010986e-01 -9.0679720044136047e-02 -1.5912076830863953e-01 -1.3537161052227020e-01 -3.3402290940284729e-01 -2.4177514016628265e-01 -6.2181282043457031e-01 4.1059604287147522e-01 4.7171062231063843e-01 7.4755221605300903e-01 5.9701275825500488e-01 4.6413189172744751e-01 4.3276041746139526e-01 2.4443972110748291e-01 7.8591310977935791e-01 7.7412384748458862e-01 6.1432659626007080e-01 3.0911067128181458e-01 5.0072884559631348e-01 4.7390672564506531e-01 9.1179144382476807e-01 6.9008749723434448e-01 3.2434955239295959e-01 1.2196719646453857e-01 -8.7500649690628052e-01 6.6523742675781250e-01 -9.5302563905715942e-01 2.0990318059921265e-01 2.1880233287811279e-01 -6.1514919996261597e-01 -5.5809342861175537e-01 6.7961579561233521e-01 1.3720872998237610e-01 -9.8623561859130859e-01 3.1579104252159595e-03 7.4377459287643433e-01 -1.0421818494796753e+00 6.4874178171157837e-01 1.8714316189289093e-01 -4.5268677175045013e-02 -4.6039721369743347e-01 -7.9294838011264801e-02 3.5706359893083572e-02 6.0741740465164185e-01 6.0605627298355103e-01 -5.4675167798995972e-01 -4.1148111224174500e-01 -2.3772031068801880e-02 1.7632567882537842e-01 4.8855587840080261e-01 6.4025771617889404e-01 5.3333765268325806e-01 3.2275274395942688e-01 -9.8183393478393555e-01 -1.6528004407882690e-01 5.4483604431152344e-01 -2.8087416291236877e-01 -8.3359712734818459e-03 -9.2790238559246063e-03 1.9526655972003937e-01 -4.9842944741249084e-01 -4.1489970684051514e-01 -2.9466706514358521e-01 2.6427194476127625e-01 4.4982260465621948e-01 -3.4955474734306335e-01 1.5824481844902039e-01 5.4159820079803467e-01 9.3573294579982758e-02 -1.5887580811977386e-02 4.1140592098236084e-01 1.0460485517978668e-01 -2.7739399671554565e-01 -5.4601091146469116e-01 9.3718752264976501e-02 5.8748555183410645e-01 -3.1599467992782593e-01 2.0320121198892593e-02 -1.7739848792552948e-01 -9.6736691892147064e-02 -4.7657430171966553e-02 -3.5222485661506653e-01 -2.9994106292724609e-01 -1.6487430036067963e-01 2.7514222264289856e-01 4.9119615554809570e-01 1.9135941565036774e-01 1.3918478786945343e-01 -2.5070878863334656e-01 2.2698773443698883e-01 2.6619382202625275e-02 3.5046762228012085e-01 -6.7119735479354858e-01 -1.5174457430839539e-01 3.3273372054100037e-01 2.1804141998291016e-01 -1.9177542626857758e-01 -4.6157574653625488e-01 -6.0087239742279053e-01 -4.6900820732116699e-01 2.9970255494117737e-01 2.3680642247200012e-01 -4.6840447187423706e-01 -1.9771803915500641e-01 -2.4717205762863159e-01 -1.8113319575786591e-01 4.6901386976242065e-01 5.1859295368194580e-01 2.9025462269783020e-01 3.3557605743408203e-01 4.3509191274642944e-01 6.0294020175933838e-01 -4.6189987659454346e-01 9.9263703823089600e-01 -5.3873974084854126e-01 1.6950279474258423e-01 -7.6046919822692871e-01 8.8199061155319214e-01 -1.2696349620819092e-01 4.0589597821235657e-01 -5.7947474718093872e-01 -1.9449856132268906e-02 -1.3876838982105255e-01 6.5695238113403320e-01 -7.5170147418975830e-01 1.8613353371620178e-01 3.7469419836997986e-01 -5.2960950136184692e-01 8.2837507128715515e-02 -8.2938008010387421e-02 -3.5852909088134766e-01 -5.2068692445755005e-01 -5.7691204547882080e-01 4.5186236500740051e-01 -4.8886593431234360e-02 -3.5270890593528748e-01 -1.9186755642294884e-02 2.3451378941535950e-01 -7.2626495361328125e-01 1.5368178486824036e-01 -9.3205732107162476e-01 -4.2083062231540680e-02 4.8267909884452820e-01 5.9687870740890503e-01 2.5880381464958191e-02 -7.3489671945571899e-01 -3.4728142619132996e-01 4.7979816794395447e-01 3.4199243783950806e-01 3.4818029403686523e-01 4.4493350386619568e-01 5.8643174171447754e-01 -5.7776963710784912e-01 -4.6740297228097916e-02 1.4795102179050446e-01 1.0719691514968872e+00 2.0344720780849457e-01 5.2661192417144775e-01 1.0001326445490122e-03 3.3442085981369019e-01 1.9376181066036224e-01 -4.6219322085380554e-01 4.5696273446083069e-02 3.6219143867492676e-01 -3.2575018703937531e-02 -4.8384112119674683e-01 -6.9705814123153687e-01 -2.7390390634536743e-01 -9.9593192338943481e-01 -2.7283847332000732e-01 -5.2449220418930054e-01 -1.2467209994792938e-01 1.2492018938064575e-01 1.9246724247932434e-01 -4.7806403040885925e-01 -2.4008493125438690e-01 -2.1807408332824707e-01 7.1821860969066620e-02 3.1046563386917114e-01 3.3833521604537964e-01 3.8866150379180908e-01 1.7975839972496033e-01 -6.3805833458900452e-02 -2.6301660109311342e-03 -4.3474805355072021e-01 1.5004570782184601e-01 -2.7082523703575134e-01 -6.8309985101222992e-02 2.2679530084133148e-01 -1.2857621768489480e-03 4.6214738488197327e-01 3.1181108951568604e-01 -7.5137126445770264e-01 5.9958297759294510e-02 -3.3836531639099121e-01 4.5647840946912766e-02 -4.9423137307167053e-01 1.2471187114715576e-01 8.2514071464538574e-01 -3.0116826295852661e-01 8.8913433253765106e-02 -3.6053562071174383e-03 2.9978308081626892e-01 -1.5690486133098602e-01 2.5529468059539795e-01 -5.0448590517044067e-01 -3.1352192163467407e-01 -4.8446702957153320e-01 -4.8724347352981567e-01 -1.4858369529247284e-01 4.2543575167655945e-01 -4.4548687338829041e-01 -1.9634352996945381e-02 -5.5111950635910034e-01 2.2355824708938599e-01 8.7447300553321838e-02 2.3756241798400879e-01 -1.3234877586364746e-01 6.0761094093322754e-01 2.9994723200798035e-01 2.1674373745918274e-01 3.0378165841102600e-01 -2.5514301657676697e-01 3.4091332554817200e-01 1.6391351819038391e-01 -2.9055264592170715e-01 2.6835015416145325e-01 -3.8679432868957520e-01 -3.0635511875152588e-01 -3.3998712897300720e-01 6.9928878545761108e-01 2.6587608456611633e-01 4.7206339240074158e-01 -1.5828533098101616e-02 -8.1154471635818481e-01 2.8180839493870735e-02 -8.5066594183444977e-02 1.7184635996818542e-01 -8.1997758150100708e-01 2.9155519604682922e-01 2.2844606637954712e-01 -4.1487339138984680e-01 -3.9268788695335388e-01 -4.1999879479408264e-01 2.7694344520568848e-02 3.5375297069549561e-01 -5.5877006053924561e-01 9.5522738993167877e-02 -4.7793629765510559e-01 -7.6027184724807739e-01 7.8291749954223633e-01 -1.3633394241333008e+00 2.9179301857948303e-01 3.1688433885574341e-01 -7.1821786463260651e-02 -2.6987650990486145e-01 8.6161351203918457e-01 -1.1293761730194092e+00 2.3044708371162415e-01 8.4074825048446655e-02 -3.8066560029983521e-01 -5.6353497505187988e-01 1.3397420942783356e-01 6.9024223089218140e-01 2.9093745350837708e-01 6.7452400922775269e-01 6.8961858749389648e-01 3.3464113948866725e-04 -1.2292687594890594e-01 -3.3850867301225662e-02 6.2960505485534668e-01 6.3821198418736458e-03 7.5909256935119629e-01 1.3252337276935577e-01 8.7750509381294250e-02 6.7430227994918823e-01 1.0632179677486420e-01 -1.1329991817474365e+00 -2.1496781706809998e-01 -1.5978536605834961e+00 -2.1250984668731689e+00 -7.0007294416427612e-01 -1.4655183553695679e+00 -2.9019098281860352e+00 1.2516334652900696e-01 -1.0283837318420410e+00 -1.4674669504165649e+00 2.4044136703014374e-01 -1.2673119306564331e+00 -1.4045995473861694e+00 -1.4738084077835083e+00 -1.6556652784347534e+00 -1.4746180176734924e-01 9.4530433416366577e-02 7.8032851219177246e-01 5.3735709190368652e-01 3.9230912923812866e-01 4.9431413412094116e-01 6.0767281055450439e-01 5.9240520000457764e-01 9.2299741506576538e-01 5.1834905147552490e-01 4.2364329099655151e-01 1.1947532892227173e+00 -3.4120437502861023e-01 -7.4092316627502441e-01 5.1964241266250610e-01 6.6452018916606903e-02 -3.9742103219032288e-01 -5.7297796010971069e-01 -2.6215818524360657e-01 -6.9805294275283813e-01 -6.0992765426635742e-01 6.3739926554262638e-03 4.3246984481811523e-02 5.5085265636444092e-01 2.4623500648885965e-03 -1.0765510797500610e-01 1.0528668165206909e+00 -2.9827436432242393e-02 4.1293215751647949e-01 -4.5993790030479431e-01 -3.9984896779060364e-01 -1.2304207682609558e-01 -2.8653201460838318e-01 3.6254954338073730e-01 -9.5891219377517700e-01 3.0477645993232727e-01 -3.9982199668884277e-01 1.6756205260753632e-01 -5.8685835450887680e-02 -2.6154011487960815e-01 8.3270621299743652e-01 -3.7671712040901184e-01 4.1430851817131042e-01 -7.4861615896224976e-01 2.6787972450256348e-01 1.1976395845413208e+00 6.8178665637969971e-01 1.1010957956314087e+00 1.1539734601974487e+00 9.6704101562500000e-01 1.2811894416809082e+00 1.1808178424835205e+00 9.7412669658660889e-01 2.0873918533325195e+00 1.5226268768310547e+00 3.9424228668212891e-01 1.3599138259887695e+00 8.0077970027923584e-01 1.1184262037277222e+00 7.6197451353073120e-01 5.8341115713119507e-02 -8.0755734443664551e-01 2.2383600473403931e-01 -7.6696026325225830e-01 -5.8468085527420044e-01 -9.0479183197021484e-01 -3.1899887323379517e-01 -1.4908443689346313e+00 -5.4914915561676025e-01 -3.8995176553726196e-01 -1.2580007314682007e+00 -9.2160946130752563e-01 1.4111579954624176e-01 -1.0293191671371460e+00 1.7052194476127625e-01 2.0699885487556458e-01 2.6321935653686523e-01 2.9278641939163208e-01 -7.3874555528163910e-02 -8.0147773027420044e-01 -1.7486069351434708e-02 -2.8189960122108459e-01 -4.9381771683692932e-01 -1.0758677497506142e-02 6.2770694494247437e-01 2.3773035407066345e-01 -3.5212361812591553e-01 6.9906252622604370e-01 2.4081774055957794e-01 3.5856857895851135e-02 4.8547694087028503e-01 1.4458213746547699e-01 3.0037373304367065e-01 -7.1531802415847778e-01 1.7160804569721222e-01 3.5258707404136658e-01 1.6906225681304932e-01 -8.1341195106506348e-01 -3.4369072318077087e-01 -3.7496480345726013e-01 -2.7868911623954773e-02 5.5844199657440186e-01 -4.8628711700439453e-01 -1.8327473104000092e-01 2.0451712608337402e-01 9.5512002706527710e-02 -7.5123071670532227e-01 -3.3710721135139465e-01 3.1955871731042862e-02 -4.2870816588401794e-01 -2.1766792982816696e-02 -1.4159752428531647e-01 -1.7722935974597931e-01 1.4807336032390594e-01 4.0799814462661743e-01 4.7532218694686890e-01 6.1145585030317307e-02 -3.2726609706878662e-01 -4.4552537798881531e-01 2.3117825388908386e-01 -3.1425514817237854e-01 -2.7265161275863647e-01 -2.7886793017387390e-01 2.9849639534950256e-01 2.4693299829959869e-01 3.0301001667976379e-01 1.3578473031520844e-01 -6.8712735176086426e-01 -3.9610585570335388e-01 -4.2883056402206421e-01 -9.3205475807189941e-01 2.1555620431900024e-01 1.5284149348735809e-01 -6.8473446369171143e-01 -4.9359342455863953e-01 -8.1542712450027466e-01 -2.1777552366256714e-01 3.9119163155555725e-01 -4.7068297863006592e-01 -1.9614024460315704e-01 -1.7610415816307068e-02 -3.5628893971443176e-01 -6.0621825978159904e-03 1.0336678028106689e+00 2.0062915980815887e-01 3.8800945878028870e-01 8.9172706007957458e-02 3.5834366083145142e-01 6.3588637113571167e-01 4.5433294773101807e-01 5.2163118124008179e-01 5.7792586088180542e-01 3.0528351664543152e-01 3.8586422801017761e-01 2.5271543860435486e-01 5.2953030914068222e-02 -4.6284222602844238e-01 3.8675997406244278e-02 -1.9235841929912567e-01 -2.0793302357196808e-01 3.4798298031091690e-02 -4.2181670665740967e-01 -3.4028545022010803e-02 1.9345293939113617e-01 4.1780921816825867e-01 -3.0527546405792236e+00 2.9526501893997192e-02 -7.7859574556350708e-01 -1.6989709138870239e+00 -1.1431685686111450e+00 -1.2881489992141724e+00 -2.0198953151702881e+00 -1.1201065778732300e+00 -2.0577878952026367e+00 -2.5012235641479492e+00 -9.6371912956237793e-01 -1.5455833673477173e+00 -2.5385162830352783e+00 -1.5031364560127258e-01 -2.4573745727539062e+00 -5.3722399473190308e-01 9.3529067933559418e-02 5.7243484258651733e-01 -8.3550903946161270e-03 3.1819653511047363e-01 4.4343513250350952e-01 -2.2926291823387146e-01 -5.3093850612640381e-01 -2.2939482331275940e-01 3.4047785401344299e-01 3.1940659880638123e-01 -9.2331761121749878e-01 3.5718569159507751e-01 3.3654391765594482e-01 -8.7987637519836426e-01 -7.0085054636001587e-01 5.7037305831909180e-01 8.2631140947341919e-02 -1.3200300931930542e-01 2.0219907164573669e-01 -1.6483788192272186e-01 -1.0584454536437988e+00 -6.2816524878144264e-03 2.0746193826198578e-02 -1.8572053313255310e-01 8.8741648197174072e-01 2.2854480147361755e-01 -1.0867046117782593e+00 1.6820031404495239e-01 1.3366240262985229e-01 -4.4789254665374756e-01 4.1181895136833191e-01 3.7658888846635818e-02 -6.3521653413772583e-01 3.0869746208190918e-01 -5.5341315269470215e-01 -3.9854934811592102e-01 6.6499519161880016e-03 -1.7735908925533295e-01 -4.3018817901611328e-01 2.0432984828948975e-01 -5.4078680276870728e-01 5.6581526994705200e-02 7.0741158723831177e-01 -8.3440887928009033e-01 2.1824188530445099e-01 7.5034719705581665e-01 3.0623930692672729e-01 1.1908831596374512e+00 -5.9468615055084229e-01 1.4826934039592743e-01 3.6013159155845642e-01 -3.5789573192596436e-01 -2.7569454908370972e-01 5.9627604484558105e-01 -4.2029464244842529e-01 -2.5856977328658104e-02 3.0715927481651306e-01 7.2781801223754883e-01 -7.5244031846523285e-02 1.5880635380744934e-01 -2.9312992095947266e-01 3.0559919774532318e-02 2.5820592045783997e-01 -1.1240687370300293e+00 -4.6320322155952454e-01 -2.6558604836463928e-01 1.3245178461074829e+00 -2.7994358539581299e-01 -5.9065546840429306e-02 2.3742099106311798e-01 -1.0014928579330444e+00 -3.4799182415008545e-01 1.6582477092742920e+00 -4.0340137481689453e-01 -4.8522415757179260e-01 5.8465945720672607e-01 3.5453799366950989e-01 -5.5842578411102295e-01 -4.1265052556991577e-01 -3.9567282795906067e-01 -7.7578715980052948e-02 -1.8102654814720154e-01 -1.5352869033813477e-01 9.2693305015563965e-01 4.7370699048042297e-01 1.5734382867813110e+00 -2.3961895704269409e-01 -6.3021957874298096e-01 -4.0703274309635162e-02 -6.6965885460376740e-02 -8.7451624870300293e-01 -6.0333013534545898e-01 -5.6735360622406006e-01 -3.0194064974784851e-01 1.9053219258785248e-01 -3.8612270355224609e-01 -6.6576755046844482e-01 -4.8565784096717834e-01 -6.9462519884109497e-01 -6.6518619656562805e-02 2.5240233540534973e-01 -5.4470610618591309e-01 2.2362124919891357e-01 2.5715973973274231e-01 1.5327604115009308e-01 -3.1154284477233887e+00 2.7464297413825989e-01 -5.5189895629882812e-01 -1.2798745632171631e+00 -1.0842192173004150e+00 -9.2890673875808716e-01 -4.5972472429275513e-01 -1.6037802696228027e+00 -5.3710269927978516e-01 4.6600829809904099e-02 -1.9555157423019409e+00 -1.5434402227401733e-01 -2.3845677375793457e+00 9.5804385840892792e-02 1.5705654025077820e-01 3.8904157280921936e-01 -1.1852644681930542e+00 -4.8892315477132797e-02 -2.9732310771942139e-01 -3.8426497578620911e-01 1.7415581643581390e-01 4.6339762210845947e-01 -8.2808381319046021e-01 1.4511321485042572e-01 5.3106296062469482e-01 -1.2576168775558472e+00 -4.6271413564682007e-01 -3.8100072741508484e-01 -2.4920724332332611e-02 4.5302975177764893e-01 1.2788070738315582e-01 5.2780824899673462e-01 -6.1873972415924072e-02 -5.0631296634674072e-01 -3.5728788375854492e-01 6.4387166500091553e-01 4.0345856547355652e-01 -2.5954571366310120e-01 -1.0316474735736847e-01 9.1941788792610168e-02 1.3645012676715851e-01 -6.5888500213623047e-01 -3.1453579664230347e-01 -7.0281356573104858e-01 2.8417176008224487e-01 1.2603507041931152e+00 2.3675221204757690e-01 -6.2081372737884521e-01 -5.0437116622924805e-01 -7.9522743821144104e-02 -1.2907190620899200e-01 -4.7368639707565308e-01 2.8084564208984375e-01 3.0144053697586060e-01 -2.1865114569664001e-01 -3.6898878216743469e-01 -7.6409995555877686e-01 6.8372678756713867e-01 6.6515487432479858e-01 4.9912109971046448e-01 -8.5916781425476074e-01 3.9961341023445129e-01 -1.4562225341796875e-01 3.7482732534408569e-01 -6.8544256687164307e-01 -2.2283853590488434e-01 5.2966195344924927e-01 -5.4083067178726196e-01 5.7914710044860840e-01 -7.6067447662353516e-01 2.9581928253173828e-01 5.1878887414932251e-01 -1.1210638284683228e+00 4.6374365687370300e-01 -4.1543456912040710e-01 3.4990668296813965e-01 4.8501676321029663e-01 8.1506427377462387e-03 -1.5631088614463806e-01 -4.0630528330802917e-01 2.7411061525344849e-01 -1.8024267256259918e-01 -4.8283019661903381e-01 -2.9759004712104797e-01 -1.3946220278739929e-01 -2.2640034556388855e-01 -2.3035146296024323e-02 -5.8948993682861328e-01 -2.2766342759132385e-01 1.4145673811435699e-01 7.6469607651233673e-02 6.0648667812347412e-01 4.7810968756675720e-01 1.3959528505802155e-01 -7.9072660207748413e-01 6.5226443111896515e-02 -6.4802515506744385e-01 2.2481597959995270e-01 -2.0408122241497040e-01 -5.3498870134353638e-01 2.9813259840011597e-01 -1.3598683476448059e-01 -4.0065276622772217e-01 -5.7432085275650024e-01 1.8718903064727783e+00 1.5923300385475159e-01 2.1793200969696045e+00 1.6323745250701904e+00 9.6119445562362671e-01 8.4744656085968018e-01 1.3752989768981934e+00 7.6503688097000122e-01 1.4097341299057007e+00 1.2957410812377930e+00 6.0995763540267944e-01 1.4270951747894287e+00 1.7603309154510498e+00 7.3251485824584961e-01 1.2096706628799438e+00 -1.5846076607704163e-01 -1.2138029932975769e-01 5.9028196334838867e-01 1.5381921827793121e-01 -6.2217956781387329e-01 1.6340494155883789e-01 -2.3720645904541016e-01 -2.1914611756801605e-01 -4.6450403332710266e-01 -7.2637784481048584e-01 9.8646089434623718e-02 4.2424388229846954e-02 -2.9830422252416611e-02 2.9810374975204468e-01 -5.5648773908615112e-01 -3.9713200926780701e-01 -4.9883902072906494e-01 -3.4779214859008789e-01 -3.0104964971542358e-01 -4.7869309782981873e-02 -2.6627215743064880e-01 4.4678512215614319e-01 -1.0560568422079086e-01 -7.5848191976547241e-02 -5.4817193746566772e-01 8.2347936928272247e-02 4.9089175462722778e-01 5.0478816032409668e-01 4.8206049948930740e-02 -6.3739669322967529e-01 -2.0103738307952881e+00 -4.6257680654525757e-01 -1.0810699462890625e+00 -1.8903413414955139e-01 1.6848023980855942e-02 -1.4985268115997314e+00 -9.7954016923904419e-01 -2.6186186075210571e-01 -1.6120728254318237e+00 -5.3488594293594360e-01 -2.0694853365421295e-01 -5.6441640853881836e-01 -6.6694146394729614e-01 -1.0255073010921478e-01 -1.3222615718841553e+00 1.6359105706214905e-01 3.8751026988029480e-01 -1.3707761466503143e-01 2.9686567187309265e-01 3.3759126067161560e-01 -2.4887442588806152e-01 3.3776071667671204e-01 3.2541662454605103e-01 6.4626738429069519e-02 -1.3263772428035736e-01 3.4851217269897461e-01 2.8609123826026917e-01 2.4913499131798744e-02 3.3811435103416443e-01 -1.7460535466670990e-01 3.6169433593750000e-01 8.4005363285541534e-02 6.7778116464614868e-01 -6.6691756248474121e-02 1.9060550630092621e-01 5.2602839469909668e-01 3.5221514105796814e-01 5.1106041669845581e-01 4.2037543654441833e-01 -2.6710736751556396e-01 2.1454910933971405e-01 3.1744313240051270e-01 5.4172936826944351e-02 4.1666373610496521e-01 4.2706599831581116e-01 6.8924683332443237e-01 -1.1361110210418701e-01 -1.3826520740985870e-01 2.8410533070564270e-01 2.8973472118377686e-01 -1.1894613504409790e+00 3.7183415889739990e-01 2.0185375213623047e-01 -8.5603874921798706e-01 4.7610464692115784e-01 -1.2029809877276421e-02 -3.0367830395698547e-01 -5.0417602062225342e-01 7.9211527109146118e-01 -5.9343016147613525e-01 2.2544714808464050e-01 -5.4588586091995239e-01 -3.1757861375808716e-01 -1.0040640830993652e+00 1.7132417857646942e-01 -5.0124697387218475e-02 -6.2618337571620941e-02 -9.2753255367279053e-01 1.4492377638816833e-01 5.6556028127670288e-01 -1.1396073102951050e+00 2.3187269270420074e-01 3.0938252806663513e-01 -1.0925775766372681e+00 -5.9267222881317139e-02 -1.7300933599472046e-01 -3.7971165776252747e-01 -3.5187196731567383e-01 1.3038945198059082e-01 -4.5709323883056641e-01 -1.5505051612854004e-01 -2.1453345194458961e-02 3.2681118696928024e-02 3.2665878534317017e-01 -4.6528571844100952e-01 1.1793893575668335e-01 4.6320533752441406e-01 2.9998403787612915e-01 8.0283015966415405e-02 -8.7667830288410187e-02 -9.0832477807998657e-01 8.2362286746501923e-02 4.1545030474662781e-01 -2.9692706465721130e-01 2.3910762369632721e-01 -4.8546993732452393e-01 -3.6699363589286804e-01 -1.2778718955814838e-03 -5.1449656486511230e-01 -5.6831449270248413e-02 9.7068492323160172e-04 5.6555902957916260e-01 -2.7830255031585693e-01 -4.2073903605341911e-03 6.4184635877609253e-01 -4.0371525287628174e-01 -1.5110473632812500e+00 6.6933065652847290e-02 -1.5978147983551025e+00 -1.0097677707672119e+00 -1.1948493719100952e+00 -1.3430624008178711e+00 -3.1754636764526367e-01 -1.0039348602294922e+00 2.0852243900299072e-01 -2.6338608264923096e+00 2.2181916236877441e-01 1.2709568440914154e-01 -2.6180710792541504e+00 -1.0451067984104156e-01 -2.5905969738960266e-01 -2.8910118341445923e-01 -1.5184123814105988e-01 -6.3281708955764771e-01 1.1837896704673767e-01 7.8494352102279663e-01 4.2427039146423340e-01 6.1758492141962051e-02 -7.3507064580917358e-01 3.1144607067108154e-01 -2.8779307007789612e-01 -1.8338191509246826e-01 6.2590301036834717e-01 3.7211135029792786e-01 -3.6986630409955978e-02 1.5687149763107300e-01 2.7300918102264404e-01 1.1462588310241699e+00 2.4829263985157013e-01 3.0153572559356689e-01 1.1935697793960571e+00 -2.3337776958942413e-01 -4.4867593050003052e-01 -2.4719208478927612e-01 -1.3993354141712189e-01 -6.3115763664245605e-01 -9.4827497005462646e-01 -1.7750686407089233e-01 -4.3623242527246475e-02 5.7921111583709717e-01 -5.7099115848541260e-01 -6.7793354392051697e-03 -9.1292327642440796e-01 1.1380048841238022e-01 -1.4133801460266113e+00 2.4414455890655518e-01 5.9183921664953232e-02 -8.2789725065231323e-01 3.6028027534484863e-01 -5.8671587705612183e-01 -2.7254351973533630e-01 -1.4511273801326752e-01 9.0427376329898834e-02 -1.1772242784500122e+00 2.4318511784076691e-01 -6.2811985611915588e-02 -2.9003122448921204e-01 3.1575858592987061e-02 3.6964848637580872e-02 -3.3474341034889221e-01 6.1323173344135284e-02 -8.0234718322753906e-01 -4.3764272332191467e-01 -1.9996440038084984e-02 -4.9414876103401184e-01 7.6287364959716797e-01 2.0321395248174667e-02 7.3923403397202492e-03 -4.9999204277992249e-01 4.2978161573410034e-01 -4.3656453490257263e-01 1.6094225645065308e-01 -6.7887079715728760e-01 -1.5359308719635010e+00 -1.1986027956008911e+00 -6.4226698875427246e-01 -7.0665156841278076e-01 -8.4030872583389282e-01 -8.8318258523941040e-01 -8.3683645725250244e-01 -6.8840891122817993e-01 -6.8908691406250000e-01 -7.7586120367050171e-01 -4.2187643051147461e-01 -9.0466225147247314e-01 6.0663884878158569e-01 3.3529424667358398e-01 -1.3171732425689697e+00 -8.1727191805839539e-02 6.6868931055068970e-01 -1.0370466709136963e+00 5.3926283121109009e-01 -8.4203040599822998e-01 1.6304977238178253e-01 -6.5202862024307251e-01 7.0206189155578613e-01 -4.2926380038261414e-01 -6.1153787374496460e-01 -1.5460961498320103e-02 4.0454480051994324e-01 -4.5867797732353210e-01 -5.4819339513778687e-01 -1.0280590504407883e-01 3.9814102649688721e-01 9.8668867349624634e-01 -3.5525327920913696e-01 -7.4296161532402039e-02 -5.2517008781433105e-01 -2.9526528716087341e-01 -5.3163975477218628e-01 -7.9520589113235474e-01 -4.8327860236167908e-01 3.2404384016990662e-01 5.5940312147140503e-01 6.2121343612670898e-01 1.4560832083225250e-01 -2.6515233516693115e-01 -3.5089427232742310e-01 3.7492800503969193e-02 4.2077291011810303e-01 7.8665035963058472e-01 3.0200737714767456e-01 -4.2914310097694397e-01 -3.1706362962722778e-01 2.2897745668888092e-01 2.6017957925796509e-01 1.4506764709949493e-01 2.6878455281257629e-01 -4.0747895836830139e-02 -5.8277302980422974e-01 -1.1076045036315918e-01 -5.9048533439636230e-01 -6.9630518555641174e-03 7.0601630210876465e-01 8.5791194438934326e-01 3.6328792572021484e-01 -1.8282218277454376e-01 -3.6327290534973145e-01 3.9834324270486832e-03 -1.9161383807659149e-01 1.4322797954082489e-01 2.9469090700149536e-01 -6.4682877063751221e-01 -3.4582716226577759e-01 -1.4866225421428680e-01 -7.6902037858963013e-01 -1.9739864766597748e-01 -3.1282973289489746e-01 3.3324483036994934e-01 2.5365459918975830e-01 -1.1293455362319946e+00 -3.3281102776527405e-01 -7.6866364479064941e-01 2.9194390773773193e-01 2.7425855398178101e-01 3.5483780503273010e-01 2.2664465010166168e-01 -2.8881070017814636e-01 -4.6278345584869385e-01 -1.9127528369426727e-01 -2.9349499940872192e-01 -6.9362662732601166e-02 2.1572081744670868e-01 5.3336459398269653e-01 1.3656643033027649e-01 4.9812602810561657e-03 4.3811717629432678e-01 -6.3517922163009644e-01 -3.6314454674720764e-01 4.1793930530548096e-01 3.3786678314208984e-01 1.2691887095570564e-02 -5.6331306695938110e-01 1.9909077882766724e-01 4.8072430491447449e-01 6.8763029575347900e-01 7.7144950628280640e-01 5.3704756498336792e-01 -1.3255646824836731e-01 -6.0518068075180054e-01 -3.9765170216560364e-01 -2.8689160943031311e-01 -4.2272347211837769e-01 2.2032892704010010e-01 4.4843465089797974e-02 -6.3527262210845947e-01 -6.9126218557357788e-01 8.0281049013137817e-01 8.9434605836868286e-01 3.1379938125610352e-01 -6.3735729455947876e-01 2.5501656532287598e-01 3.0861106514930725e-01 -1.1800196021795273e-01 3.7619078159332275e-01 -4.2640557885169983e-01 -4.5857390761375427e-01 -6.1692428588867188e-01 -2.0767226815223694e-02 2.7096664905548096e-01 -7.2313231229782104e-01 -3.6516809463500977e-01 -4.7222054004669189e-01 -4.8264899849891663e-01 2.5540265440940857e-01 -1.6832438111305237e-01 -1.9999420642852783e-01 -1.6070817410945892e-01 2.2521778941154480e-01 4.4070267677307129e-01 -2.7405223250389099e-01 -2.2891311347484589e-01 2.1009407937526703e-01 2.7212983369827271e-01 6.1871993541717529e-01 -6.4324206113815308e-01 -4.4383618235588074e-01 -4.2357662320137024e-01 -5.4141390323638916e-01 -1.7355434596538544e-02 3.0164423584938049e-01 1.8137601017951965e-01 -1.1439637094736099e-01 2.6890254020690918e-01 6.4247292280197144e-01 2.2632641717791557e-02 -5.0838124752044678e-01 7.5163677334785461e-02 -5.5377578735351562e-01 1.1398821324110031e-01 1.0056000202894211e-01 9.1297931969165802e-02 4.0626135468482971e-01 5.2652025222778320e-01 4.1354335844516754e-02 1.7569124698638916e-01 4.1935622692108154e-01 -3.5564759373664856e-01 4.4155646115541458e-02 4.4145360589027405e-01 -6.2484157085418701e-01 -5.6580942869186401e-01 1.9553717970848083e-01 2.1716384589672089e-01 -2.5859904289245605e-01 -5.2869403362274170e-01 3.5651794075965881e-01 -2.7433925867080688e-01 -6.1019068956375122e-01 -5.3884553909301758e-01 7.6429402828216553e-01 -6.9469732046127319e-01 8.6685609817504883e-01 6.1137776821851730e-02 -1.6101365908980370e-02 9.9219435453414917e-01 5.9917098283767700e-01 2.1442732214927673e-01 -6.9970684126019478e-03 5.2878480404615402e-02 -3.9911267161369324e-01 4.2072802782058716e-01 -3.8940459489822388e-01 3.2589036226272583e-01 6.0325646400451660e-01 -6.7723989486694336e-01 -2.7101512998342514e-02 1.4785574376583099e-01 9.7245657444000244e-01 -5.5156302452087402e-01 2.4517174065113068e-01 -5.1537942886352539e-01 -2.7247768640518188e-01 -1.0011382102966309e+00 -5.1218096166849136e-02 3.2359132170677185e-01 -1.1925743520259857e-01 5.7657670974731445e-01 1.5489307045936584e-01 -1.1848156452178955e+00 1.4729979634284973e-01 6.6969895362854004e-01 -6.4556312561035156e-01 -6.3918590545654297e-02 7.2832810878753662e-01 -1.2266286611557007e+00 -3.0402061343193054e-01 -2.5457004085183144e-02 2.2682470083236694e-01 -1.6528974473476410e-01 -5.6221002340316772e-01 -7.2632128000259399e-01 7.2145678102970123e-02 1.0652885437011719e+00 -4.7873124480247498e-01 -4.8787437379360199e-02 -1.4948205947875977e+00 1.0413669794797897e-01 1.4468549191951752e-01 -1.5599797964096069e+00 2.8693214058876038e-01 6.9535277783870697e-02 -1.6895691156387329e+00 -1.6775609552860260e-01 -7.3776274919509888e-01 -2.4085491895675659e-01 2.9269760847091675e-01 5.9559121727943420e-02 -4.0397951006889343e-01 -8.1995308399200439e-01 2.1457469463348389e-01 5.4853963851928711e-01 5.1250278949737549e-01 4.4667965173721313e-01 -1.0786585807800293e+00 3.2346320152282715e-01 -1.1144073307514191e-01 -2.4278549849987030e-01 5.0481325387954712e-01 -7.1144717931747437e-01 2.4116156995296478e-01 -6.0380148887634277e-01 5.5413675308227539e-01 7.9806971549987793e-01 -2.9876855015754700e-01 -6.9155633449554443e-01 -6.8480259180068970e-01 -5.8829504996538162e-02 2.0880644023418427e-01 2.4959257245063782e-01 -1.0760953277349472e-01 -6.7450916767120361e-01 2.5929504632949829e-01 -1.8604925274848938e-01 -9.2331491410732269e-02 -4.1498816013336182e-01 -1.7930694157257676e-03 -1.7696180939674377e-01 -4.3757382035255432e-01 2.9612255096435547e-01 -8.3829510211944580e-01 6.3187420368194580e-02 -1.4656212329864502e+00 -8.4403640031814575e-01 -6.4735925197601318e-01 -9.1924357414245605e-01 1.7607477307319641e-01 -2.0268206596374512e+00 1.1902479082345963e-01 1.1451528221368790e-01 -2.0071244239807129e+00 2.4493089318275452e-01 -1.2401700019836426e+00 7.8987270593643188e-02 -1.2304205894470215e+00 -1.7737555503845215e-01 1.1985528469085693e+00 -1.0357373952865601e+00 1.7277342081069946e-01 1.0240153968334198e-01 -4.7371423244476318e-01 3.7923043966293335e-01 -5.9347695112228394e-01 2.0443737506866455e-01 -1.3309222459793091e-01 7.4712151288986206e-01 -5.9753811359405518e-01 -4.6842759847640991e-01 -2.9687711596488953e-01 -6.8983519077301025e-01 7.4310648441314697e-01 5.3040537983179092e-02 -5.3698420524597168e-01 -7.3418751358985901e-02 7.4164146184921265e-01 -5.4773467779159546e-01 -3.8216912746429443e-01 -2.4425330758094788e-01 -5.7661491632461548e-01 -1.2915773689746857e-01 -5.3528273105621338e-01 -3.6284884810447693e-01 4.3919739127159119e-01 -6.6178607940673828e-01 -1.0301370620727539e+00 4.6558994054794312e-01 9.4144141674041748e-01 3.0155944824218750e-01 5.7522970438003540e-01 7.5877058506011963e-01 2.6295611262321472e-01 5.0863534212112427e-01 2.2957684099674225e-01 2.6089009642601013e-01 1.4282333850860596e-01 3.6175456643104553e-01 3.5129606723785400e-01 2.7229720354080200e-01 3.1173327565193176e-01 3.3503630757331848e-01 1.9051370024681091e-01 1.2568941712379456e-01 -6.4571666717529297e-01 5.7217612862586975e-02 4.1520810127258301e-01 1.2298272550106049e-01 4.1752043366432190e-01 3.0435305833816528e-01 -3.1229788064956665e-01 3.2532903552055359e-01 -9.6014067530632019e-02 -3.2135066576302052e-03 3.9322832226753235e-01 3.0190822482109070e-01 4.3960966169834137e-02 1.4188072085380554e-01 5.4344624280929565e-01 -9.8125350475311279e-01 1.7440165579319000e-01 4.6937969326972961e-01 -7.9187244176864624e-01 -4.6537533402442932e-01 2.9531046748161316e-02 -3.3853584527969360e-01 1.8600845336914062e-01 4.2173975706100464e-01 -3.2294437289237976e-01 1.5902054309844971e-01 5.3934472799301147e-01 -6.7469710111618042e-01 -5.4831570386886597e-01 -4.4452291727066040e-01 -2.9726731777191162e-01 -3.6723360419273376e-01 1.5395660400390625e+00 -3.9998841285705566e-01 8.1183481216430664e-01 -1.2024556398391724e+00 2.1587789058685303e-01 -3.4374669194221497e-01 1.3409959077835083e+00 -5.4515463113784790e-01 -8.7250079959630966e-03 -5.7997866533696651e-03 -5.1368379592895508e-01 -2.6072841882705688e-01 9.8614336457103491e-04 3.8744285702705383e-01 2.5643789768218994e-01 6.1004251241683960e-02 -4.6143558621406555e-01 -1.1136859655380249e+00 4.6611662954092026e-02 5.9968727827072144e-01 2.6499003171920776e-01 4.2385768890380859e-01 3.3354470133781433e-01 -2.1507634222507477e-01 -1.9264546036720276e-01 -2.3678928613662720e-01 -5.0936901569366455e-01 -5.6465405225753784e-01 -6.3815230131149292e-01 3.0801334977149963e-01 5.6625783443450928e-01 4.5811697840690613e-01 5.4733550548553467e-01 6.0441613197326660e-01 3.7899196147918701e-01 -6.8834656476974487e-01 -6.1113452911376953e-01 -3.8744750618934631e-01 6.3110345602035522e-01 -1.5860967338085175e-01 -2.1821290254592896e-01 2.4045807123184204e-01 5.8023536205291748e-01 3.2632377743721008e-01 2.7555656433105469e-01 7.9987984895706177e-01 5.5512762069702148e-01 3.9199009537696838e-01 3.9176070690155029e-01 6.8294519186019897e-01 4.3614354729652405e-01 5.4851591587066650e-01 4.3572184443473816e-01 2.5076949596405029e-01 7.0677578449249268e-01 8.3606147766113281e-01 2.0720960572361946e-02 2.7937620878219604e-01 4.4110128283500671e-01 1.4845806360244751e-01 1.2333703041076660e-01 -4.7481301426887512e-01 -1.7810371518135071e-01 -1.5276341140270233e-01 8.8340416550636292e-02 6.3585412502288818e-01 1.7702807486057281e-01 -6.0663354396820068e-01 -2.7925512194633484e-01 4.4023209810256958e-01 1.3507391512393951e-01 3.7738633155822754e-01 -9.0799206495285034e-01 2.1198083460330963e-01 5.2263516187667847e-01 -1.4226719141006470e+00 3.6628782749176025e-01 2.5126186013221741e-01 -1.7466343641281128e+00 1.1963717639446259e-01 4.0051585435867310e-01 -1.3856098651885986e+00 -2.6628121733665466e-02 -7.1907585859298706e-01 -4.1846016049385071e-01 -9.8442263901233673e-02 -4.3198513984680176e-01 -2.0016798377037048e-01 -7.2669702768325806e-01 -2.0825872197747231e-02 -2.9300388693809509e-01 -7.5178080797195435e-01 6.6224180161952972e-02 -1.0514248609542847e+00 -4.8528668284416199e-01 -3.9848890900611877e-01 8.4364324808120728e-02 -7.3092633485794067e-01 1.4036470651626587e-01 -1.5295898914337158e+00 1.3021349906921387e-01 7.8953391313552856e-01 7.9494082927703857e-01 -8.6728972196578979e-01 1.5241955220699310e-01 4.6346843242645264e-01 -4.6197351068258286e-02 -1.1007528305053711e+00 1.9443515688180923e-02 -1.6965873539447784e-01 2.5686934590339661e-01 -8.7940022349357605e-02 4.7728830575942993e-01 -4.0382584929466248e-01 -6.6013440489768982e-02 -5.3209692239761353e-01 8.6220704019069672e-02 -2.5393307209014893e-01 2.5972333550453186e-01 -2.4416336417198181e-01 -6.0511952638626099e-01 -3.3891680836677551e-01 7.5859659910202026e-01 3.7167549133300781e-01 1.9449803233146667e-01 -2.8189030289649963e-01 -1.8883451819419861e-02 -2.1380300819873810e-01 2.9945435002446175e-02 2.9792976379394531e-01 6.7277437448501587e-01 -7.4859306216239929e-02 -2.7567213773727417e-01 6.4197844266891479e-01 -4.1712573170661926e-01 -4.4626361131668091e-01 -6.0276925563812256e-01 6.1704832315444946e-01 7.7061831951141357e-02 -5.9390765428543091e-01 -2.2994304075837135e-02 7.2203546762466431e-01 -4.5977219939231873e-01 3.4874460101127625e-01 -2.4384132027626038e-01 -6.1183649301528931e-01 6.0705757141113281e-01 -1.9784033298492432e-01 2.0648935809731483e-02 1.6863252222537994e-01 -1.2612383067607880e-01 5.7835716009140015e-01 1.1289745569229126e-01 6.1411899328231812e-01 2.5087034702301025e-01 6.7423558235168457e-01 -1.9267907738685608e-01 3.2335108518600464e-01 4.8223625868558884e-02 -7.0111656188964844e-01 4.4800415635108948e-02 1.0637825727462769e-01 -7.7358633279800415e-01 1.6451098024845123e-01 -1.0691941976547241e+00 7.8860290348529816e-02 4.8926997184753418e-01 -7.9758405685424805e-02 -3.7159502506256104e-01 1.0409839153289795e+00 -2.2071418166160583e-01 4.7154161334037781e-01 -9.2187958955764771e-01 1.3657213747501373e-01 -1.1232330799102783e+00 1.4732216298580170e-01 3.3907228708267212e-01 -3.4711152315139771e-02 -4.4428902864456177e-01 4.4065302610397339e-01 -7.8792370855808258e-02 -4.8300772905349731e-01 2.7362316846847534e-01 3.8147941231727600e-01 -5.9685659408569336e-01 3.2450991868972778e-01 -2.8219565749168396e-01 2.1942006051540375e-01 1.7660912871360779e-01 4.0491916239261627e-02 3.5628672689199448e-02 -1.1841431856155396e+00 -1.7002159357070923e-01 -1.3575656414031982e+00 -7.6950050890445709e-02 -8.2602381706237793e-02 1.1433962732553482e-01 -1.2964423000812531e-01 -7.7375456690788269e-02 9.0459816157817841e-02 -8.7025672197341919e-01 9.2333115637302399e-02 -1.0493975877761841e+00 -9.4112807512283325e-01 -4.6138721704483032e-01 -3.7711623311042786e-01 -3.7801131606101990e-01 -4.6196684241294861e-01 -6.3869133591651917e-02 6.6080385446548462e-01 -3.1293850392103195e-02 -3.3553296327590942e-01 -1.9185158610343933e-01 1.3317677974700928e+00 -1.3842204213142395e-01 1.2790931463241577e+00 -2.7755597233772278e-01 4.8503796570003033e-03 -4.8088502883911133e-01 -5.7962244749069214e-01 -9.4719272851943970e-01 -2.1638125181198120e-01 1.8963715434074402e-01 6.1360895633697510e-01 -8.7882995605468750e-01 8.6939948797225952e-01 2.2230191528797150e-01 -1.3794751465320587e-01 1.7846444249153137e-01 1.6093721985816956e-01 -5.0286497920751572e-02 4.6342533826828003e-01 1.7132361233234406e-01 8.2335901260375977e-01 1.8355874717235565e-01 -1.9859607517719269e-01 6.0118788480758667e-01 5.7465994358062744e-01 2.4135775864124298e-01 -2.6911401748657227e-01 -2.3132838308811188e-01 -3.9705434441566467e-01 -2.6599645614624023e-01 -7.9724973440170288e-01 -3.8974899053573608e-01 1.5117385387420654e+00 -1.6819912195205688e-01 -9.3574708700180054e-01 7.3293328285217285e-01 2.1459972485899925e-02 -6.1647289991378784e-01 -9.4525104761123657e-01 -1.1538698673248291e+00 3.7568125873804092e-02 -3.5320711135864258e-01 2.0203204452991486e-01 7.9608164727687836e-02 4.0818533301353455e-01 4.5670598745346069e-01 9.8869696259498596e-02 4.6292534470558167e-01 -1.4136366546154022e-01 3.9260923862457275e-02 5.8383083343505859e-01 -2.9488682746887207e-01 9.0913675725460052e-02 3.9040204882621765e-01 3.1740507483482361e-01 6.8900889158248901e-01 2.0902122557163239e-01 1.6135354340076447e-01 1.0060184001922607e+00 4.2453551292419434e-01 5.1137965917587280e-01 4.5580777525901794e-01 1.7709681391716003e-01 6.2139976024627686e-01 8.4674537181854248e-01 4.7942110896110535e-01 5.9617972373962402e-01 4.6013659238815308e-01 -1.2707113027572632e+00 -1.8760644197463989e+00 -9.8584270477294922e-01 -5.9011006355285645e-01 -2.5398464202880859e+00 -3.8858345150947571e-01 -5.2626609802246094e-01 -3.0589349269866943e+00 1.2466400116682053e-01 -5.7446700334548950e-01 -2.5525889396667480e+00 -5.2521610260009766e-01 -2.0457105636596680e+00 -6.5199762582778931e-01 -6.7076486349105835e-01 1.0237072408199310e-01 6.1206573247909546e-01 5.2680963277816772e-01 3.0872261524200439e-01 -5.9787309169769287e-01 -7.6280182600021362e-01 -1.7422164976596832e-01 -6.5607970952987671e-01 -1.0140944272279739e-02 -2.4628663063049316e-01 1.1206503957509995e-01 -1.8827302381396294e-02 2.9754531383514404e-01 6.2833823263645172e-02 5.1448518037796021e-01 -6.0089724138379097e-03 -1.0804370045661926e-01 -6.2802843749523163e-02 2.8278219699859619e-01 -5.0556850433349609e-01 -1.0833228938281536e-02 -8.1231355667114258e-01 -5.9884633868932724e-02 -7.5844489037990570e-02 9.0151923894882202e-01 -7.7841615676879883e-01 1.4100423455238342e-01 3.3019971847534180e-01 -2.7746853232383728e-01 8.2669675350189209e-02 -9.0852564573287964e-01 -7.0605182647705078e-01 -4.6547707915306091e-01 -1.5833934545516968e+00 3.3567361533641815e-02 -1.7286168038845062e-01 -8.6700057983398438e-01 9.5692411065101624e-02 -7.1943032741546631e-01 -8.2868325710296631e-01 -1.0868934541940689e-01 -1.0957235097885132e+00 -1.7078344821929932e+00 -8.2822382450103760e-02 -1.0924487113952637e+00 -1.5334473550319672e-01 -1.2042408436536789e-01 7.9559624195098877e-01 -2.7377727627754211e-01 -3.6737963557243347e-01 -4.9082037806510925e-01 2.0238481462001801e-01 -7.7663242816925049e-01 5.2747535705566406e-01 -3.8002249598503113e-01 -3.1446173787117004e-01 -7.9467052221298218e-01 1.7137935757637024e-01 2.4460235238075256e-01 -7.8765743970870972e-01 2.0491628348827362e-01 -1.9014946222305298e+00 2.5445821881294250e-01 -3.2362034916877747e-01 -5.3859472274780273e-01 -4.8145943880081177e-01 1.5349651873111725e-01 -1.6887027025222778e+00 1.2527318298816681e-01 6.4673095941543579e-02 -1.0681123733520508e+00 -1.8973477184772491e-01 -2.9567921161651611e-01 -1.7203445732593536e-01 -8.2318061590194702e-01 1.6848587989807129e-01 -2.2867875099182129e+00 2.6038211584091187e-01 -1.7023974657058716e-01 8.5841193795204163e-02 -1.3882212638854980e+00 -9.4466704130172729e-01 -4.1998827457427979e-01 6.0882221907377243e-02 -1.6871318817138672e+00 8.0402813851833344e-02 -1.0525652766227722e-01 -1.0078338384628296e+00 -6.9468694925308228e-01 -1.0314266681671143e+00 2.4280661344528198e-01 2.4089440703392029e-01 -6.9136446714401245e-01 -3.8177102804183960e-01 2.0627345144748688e-01 2.9143324494361877e-01 2.6752439141273499e-01 5.6195563077926636e-01 2.8441426157951355e-01 2.4754484184086323e-03 -8.2718783617019653e-01 -5.0410598516464233e-01 -6.3939595222473145e-01 -2.1258811652660370e-01 -3.5515329241752625e-01 -1.9499233365058899e-01 1.1320426315069199e-01 3.7170675396919250e-01 -3.7927880883216858e-01 5.1047056913375854e-01 -8.4260874986648560e-01 1.7431120574474335e-01 2.9137739539146423e-01 -6.6039824485778809e-01 -2.8669470548629761e-01 -5.3558284044265747e-01 -1.7984266579151154e-01 1.9988574087619781e-01 -9.0830408036708832e-02 1.6552573442459106e-01 -5.0097835063934326e-01 -4.2903810739517212e-01 -2.4175992608070374e-01 4.8204317688941956e-01 2.8282007575035095e-01 -7.9106765985488892e-01 3.9168789982795715e-01 7.0337450504302979e-01 3.5442429780960083e-01 -8.1112688779830933e-01 -2.8893482685089111e-01 -8.8638037443161011e-02 -1.3896201550960541e-01 3.9013314247131348e-01 6.0435813665390015e-01 -2.3420494794845581e-01 -3.8105252385139465e-01 2.4389721453189850e-01 3.2895973324775696e-01 -3.7440991401672363e-01 -6.3105411827564240e-02 -6.8903094530105591e-01 -1.9905178248882294e-01 -1.0729297250509262e-01 -4.8516282439231873e-01 5.4389768838882446e-01 3.8665762543678284e-01 -3.1246551871299744e-01 -2.3273637890815735e-01 8.7755642831325531e-02 4.1487503051757812e-01 -1.0940457880496979e-01 -4.8511362075805664e-01 -3.4319707751274109e-01 -5.8017790317535400e-01 -5.5249613523483276e-01 3.9403966069221497e-01 1.3053143024444580e+00 -2.6233795285224915e-01 4.9963802099227905e-01 3.2212615478783846e-03 -5.1504689455032349e-01 7.0330697298049927e-01 2.6997146010398865e-01 -7.2981798648834229e-01 3.8120657205581665e-02 -3.2668387889862061e-01 -4.6683105826377869e-01 -2.7696323394775391e-01 -1.7307774722576141e-01 -2.6630246639251709e-01 2.0799884200096130e-01 -7.0493018627166748e-01 2.5071689486503601e-01 -1.8757210671901703e-01 2.2838629782199860e-01 -7.6187652349472046e-01 -2.2046574950218201e-01 1.8359319865703583e-01 6.0425966978073120e-01 -7.0059210062026978e-01 -6.1704123020172119e-01 -3.5256281495094299e-01 -4.0126997232437134e-01 -5.2442866563796997e-01 -9.3524083495140076e-02 -7.6831078529357910e-01 -3.6024627089500427e-01 -1.7861606180667877e-01 1.3619698584079742e-01 5.7610642910003662e-01 2.8330042958259583e-01 3.6813813447952271e-01 6.8107575178146362e-01 4.0100887417793274e-01 3.2039546966552734e-01 -5.6367802619934082e-01 6.4666402339935303e-01 -2.0907950401306152e-01 4.5799851417541504e-02 9.0307779610157013e-02 -5.5508649349212646e-01 8.4296947717666626e-01 -6.5914410352706909e-01 -4.8391526937484741e-01 -1.5841902792453766e-01 8.2750633358955383e-02 7.7497994899749756e-01 9.3761509656906128e-01 6.1351644992828369e-01 -7.6180225610733032e-01 2.9407015442848206e-01 2.2143689915537834e-02 1.4105057716369629e-01 1.9872997701168060e-01 1.9778405129909515e-01 7.9805552959442139e-02 5.9910535812377930e-01 -5.5361848324537277e-02 6.5192753076553345e-01 7.2279095649719238e-01 -3.1860482692718506e-01 2.0668168365955353e-01 1.9299495220184326e-01 4.3782383203506470e-01 -8.4262353181838989e-01 -2.7552714943885803e-01 -2.7568644285202026e-01 5.2165091037750244e-01 4.8824900388717651e-01 3.0637070536613464e-01 5.0311183929443359e-01 4.6183769591152668e-03 -3.2720392942428589e-01 -6.4339894056320190e-01 -2.6970246434211731e-01 -2.9163786768913269e-01 -3.7474405765533447e-01 2.2295892238616943e-01 -3.9515227079391479e-01 1.1066159605979919e-01 -6.7282766103744507e-01 -6.2498509883880615e-01 -3.3628827333450317e-01 3.7432426214218140e-01 -5.4883372783660889e-01 3.4249866008758545e-01 -1.3578944206237793e+00 2.2998858988285065e-01 -5.0815552473068237e-01 -6.6360431909561157e-01 -4.2722514271736145e-01 1.3785564899444580e-01 -7.4733978509902954e-01 -8.3271998167037964e-01 -6.3857704401016235e-02 -9.1877162456512451e-02 4.0457922220230103e-01 -7.4843472242355347e-01 2.0144544541835785e-01 -5.6893986463546753e-01 4.0574163198471069e-01 5.6213621050119400e-02 -1.5466064214706421e-01 -4.3575984239578247e-01 4.5672425627708435e-01 4.7165483236312866e-01 1.3241492211818695e-01 -2.8779869899153709e-02 -3.9478513598442078e-01 -3.4799209237098694e-01 -2.5972619652748108e-01 -4.0817213058471680e-01 -1.3503046035766602e+00 3.2192075252532959e-01 2.2156418859958649e-01 1.3126410543918610e-01 -6.8984174728393555e-01 -4.9333646893501282e-01 2.2161132097244263e-01 -1.2053864002227783e+00 3.7712007761001587e-01 -6.4446264505386353e-01 9.3800619244575500e-02 3.2624122500419617e-01 6.3104516267776489e-01 5.9737586975097656e-01 -6.2833327054977417e-01 -5.7525682449340820e-01 -7.9691338539123535e-01 5.1001369953155518e-01 -2.6206344366073608e-01 -3.0000049620866776e-02 6.8877317011356354e-02 1.9877055287361145e-01 -1.3713094592094421e-01 -2.4839407205581665e-01 2.4002960324287415e-01 -3.4508767724037170e-01 -5.0020962953567505e-01 1.5757478475570679e+00 -9.3817842006683350e-01 -2.0082823932170868e-01 3.8961678743362427e-01 -5.1722383499145508e-01 -8.9069314301013947e-02 -3.3976489305496216e-01 2.8968515992164612e-01 1.4732523262500763e-01 4.2740128934383392e-02 2.5261440873146057e-01 3.7366583943367004e-01 2.8892788290977478e-01 1.2339057922363281e+00 1.9258783757686615e-01 4.9778175354003906e-01 9.1103738546371460e-01 -3.5433208942413330e-01 6.6314554214477539e-01 5.9781354665756226e-01 -3.1450733542442322e-01 5.9636229276657104e-01 8.4378087520599365e-01 -3.5313668847084045e-01 5.5069643259048462e-01 8.6263191699981689e-01 -2.8863748908042908e-01 7.3205655813217163e-01 8.3037400245666504e-01 -1.4989876747131348e-01 -1.6540987789630890e-01 1.0137655735015869e+00 -8.7192910909652710e-01 -2.6391407847404480e-01 1.2841525077819824e+00 -4.9629202485084534e-01 -3.6350581049919128e-01 1.5098636150360107e+00 -5.6411445140838623e-01 7.9754382371902466e-01 -2.7768611907958984e-01 2.3631724715232849e-01 -1.5180951356887817e-01 7.2820168733596802e-01 -3.7149697542190552e-01 6.6460794210433960e-01 3.3785703778266907e-01 8.1229972839355469e-01 -6.4248853921890259e-01 -4.6273794770240784e-01 -1.9751314818859100e-01 -3.4932711720466614e-01 1.1454769223928452e-01 3.2746037840843201e-01 4.7013607621192932e-01 3.4722664952278137e-01 6.3142053782939911e-02 -3.8278573751449585e-01 -5.9009319543838501e-01 -4.8694008588790894e-01 1.5721997618675232e-01 1.9987873733043671e-01 -3.2438510656356812e-01 2.0842389762401581e-01 2.0601050555706024e-01 -3.1846812367439270e-01 1.9219675660133362e-01 3.0092117190361023e-01 6.6804826259613037e-01 1.0816407948732376e-01 1.2391113489866257e-01 -7.5302913784980774e-02 1.9808447360992432e-01 -2.3252362012863159e-01 -5.3828346729278564e-01 6.8198341131210327e-01 2.6995238661766052e-01 2.1544077992439270e-01 4.5694570988416672e-02 7.4241727590560913e-02 -5.4633772373199463e-01 4.4574657082557678e-01 -6.7988336086273193e-01 3.9204734563827515e-01 4.0506815910339355e-01 1.1751608848571777e+00 -1.3997632265090942e-01 4.2258238792419434e-01 5.2108579874038696e-01 -7.1579232811927795e-02 
      </Weights>
      <Biases rows="150" cols="1">
        8.5854671895503998e-02 -2.9256650805473328e-01 8.8923588395118713e-02 -2.3834424093365669e-02 -4.7988537698984146e-02 -2.2416710853576660e-01 5.6599359959363937e-04 -2.2388261556625366e-01 -6.2678672838956118e-04 2.4336388334631920e-02 1.4791591465473175e-01 -2.1106411516666412e-01 -1.1340655386447906e-01 -3.0670389533042908e-02 -1.1434586346149445e-01 7.5678229331970215e-02 -7.0209428668022156e-02 -1.1071285605430603e-01 -2.1844361722469330e-01 -1.4663091301918030e-01 -2.6480492949485779e-01 -4.4273827224969864e-02 -2.5786352157592773e-01 -2.9248530045151711e-02 -1.3658158481121063e-01 -3.2279759645462036e-01 -1.2152691185474396e-01 -5.6467950344085693e-02 -1.9267037510871887e-02 1.2980290921404958e-04 -2.9568953439593315e-02 -1.5579572319984436e-01 -1.5803156793117523e-01 1.6707096248865128e-02 -3.1544324755668640e-01 -8.0245953798294067e-01 -4.1064966470003128e-02 -1.7700380086898804e+00 2.4822649359703064e-01 -3.6761127412319183e-02 -9.6112608909606934e-02 -4.0930509567260742e-02 7.4760029092431068e-03 1.0629893839359283e-01 -7.8927904367446899e-02 -6.6974677145481110e-02 -2.0758923888206482e-01 -5.4746299982070923e-02 -2.3310234246309847e-04 -1.3279134035110474e-01 5.4053670167922974e-01 -1.3310261070728302e-01 7.6627098023891449e-02 7.3378995060920715e-02 1.0600339919619728e-05 -6.1968839727342129e-03 -1.0944313835352659e-03 6.7327648401260376e-02 1.4352081716060638e-01 -4.4161971658468246e-02 -1.7173923552036285e-01 -2.8799835126847029e-04 -4.8239734023809433e-02 -1.5573845803737640e-01 -1.7847424745559692e-01 2.2105896845459938e-02 -2.4814730510115623e-02 -1.3718102127313614e-02 1.8278871476650238e-01 -7.9227268695831299e-01 -1.9191509112715721e-02 -2.7031527832150459e-02 -8.6096346378326416e-02 -6.0331180691719055e-02 -4.1202142834663391e-02 1.2471442669630051e-01 -4.9127943813800812e-02 -2.5945078232325613e-04 5.2357446402311325e-02 4.8704408109188080e-02 1.5812863409519196e-01 -1.2015048414468765e-02 -7.9629451036453247e-02 -3.0039900541305542e-01 -1.1506228148937225e-01 -1.7315052449703217e-02 -5.1962000131607056e-01 -1.3457806408405304e-01 -9.8751738667488098e-02 -3.0929192900657654e-01 -2.0406548678874969e-01 -5.0641439855098724e-02 1.8827095627784729e-02 1.2464987230487168e-04 -2.8983823722228408e-04 7.2118319571018219e-02 -4.3798312544822693e-02 -5.4033732414245605e-01 6.4237147569656372e-02 -3.5468107671476901e-04 -8.4101753309369087e-03 -2.0705409348011017e-01 -1.5365487337112427e-01 -1.3752949237823486e-01 -1.1677561327815056e-02 -5.2334159612655640e-02 -2.7138007804751396e-02 1.6560755670070648e-02 -1.6396744549274445e-01 -3.0186086893081665e-02 4.7657087445259094e-02 -3.5943189263343811e-01 1.9862064800690860e-04 -5.3721747826784849e-04 -1.5584810972213745e+00 2.0151822536718100e-04 -1.1865235120058060e-01 9.5833547413349152e-02 -1.9578441977500916e-02 -5.3700973512604833e-04 -7.3715724283829331e-04 -1.0700899362564087e+00 -1.4740897715091705e-01 2.2918358445167542e-01 -2.5756123661994934e-01 -7.1533128619194031e-02 8.8923044502735138e-02 -4.5990269631147385e-02 5.4442517459392548e-02 1.1096186190843582e-01 -9.3184448778629303e-02 -8.1724755465984344e-02 -1.0779881477355957e-01 -1.5301065146923065e-01 -2.2207504138350487e-02 -9.6893303096294403e-02 -1.1554912477731705e-01 -5.6673664599657059e-02 -1.5170928835868835e-01 -5.4628334939479828e-02 -1.3921237550675869e-02 -9.0825617313385010e-01 -4.2632911354303360e-02 -2.4997028708457947e-01 -1.5547299385070801e-01 1.0440298356115818e-02 -1.4851378509774804e-03 -4.9535270780324936e-02 -8.5461646318435669e-02 7.2276845457963645e-05 
      </Biases>
    </Layer>
    <Layer ActivationFunction="1">
      <Weights rows="100" cols="150">
        2.0837199687957764e-01 1.6610170900821686e-01 2.5354892015457153e-02 -2.6109814643859863e-01 -2.0509149879217148e-02 1.5408222377300262e-01 9.0010166168212891e-02 2.0881766080856323e-01 7.2524346411228180e-02 -1.2210565060377121e-01 -2.7627030387520790e-02 -2.7617108821868896e-01 -1.1245144158601761e-01 8.9019984006881714e-02 -2.1106356754899025e-02 1.8038451671600342e-01 -2.8606101870536804e-01 7.5243167579174042e-02 1.2062605470418930e-01 1.3431623578071594e-01 -1.1149092763662338e-01 -1.7959918081760406e-01 1.4342367649078369e-01 2.9132732748985291e-01 3.5121344029903412e-02 -5.8461256325244904e-02 -1.3972833752632141e-01 -3.7817812990397215e-03 1.4590784907341003e-01 -5.6666661053895950e-02 1.7159102484583855e-02 -2.0141825079917908e-02 1.2274736911058426e-01 1.7150315642356873e-01 9.1447457671165466e-02 1.0655360668897629e-01 1.2448331713676453e-01 -1.1202390305697918e-02 7.7599376440048218e-02 8.7984409183263779e-03 2.9970392584800720e-01 5.8734446763992310e-02 -4.8071566224098206e-01 -1.7857280373573303e-01 -3.0745220184326172e-01 -2.7354879304766655e-02 2.0454549789428711e-01 -1.7762091010808945e-02 -3.5174041986465454e-02 -5.8307532221078873e-02 1.1567464098334312e-02 2.9087935108691454e-03 -2.6793286204338074e-01 -8.4505073726177216e-02 -1.7718507349491119e-01 -6.1341632157564163e-02 -6.6000536084175110e-02 1.0744114220142365e-01 -1.5772821009159088e-01 -1.2528648972511292e-01 1.0861662775278091e-01 -1.8937012553215027e-01 2.2109575569629669e-01 -1.1417690664529800e-01 5.7195346802473068e-02 -1.3421753048896790e-01 8.9720919728279114e-02 2.4503816664218903e-01 3.6120701581239700e-02 -1.0390994697809219e-01 -2.7046944014728069e-03 5.1303476095199585e-02 1.6809549927711487e-01 5.9666853398084641e-02 -2.0008380711078644e-01 8.7810128927230835e-02 1.8555968999862671e-01 6.6795041784644127e-03 8.4673561155796051e-02 -5.9912513941526413e-02 1.6135074198246002e-01 3.6551814526319504e-02 -1.5024839341640472e-01 -6.3516229391098022e-02 5.7340197265148163e-02 -8.1194497644901276e-02 -2.9014157131314278e-02 -1.5584310889244080e-01 5.2898656576871872e-02 2.7930423617362976e-01 1.6790537163615227e-02 -1.7820134758949280e-01 -4.1063547134399414e-02 -2.5060873012989759e-03 7.1169406175613403e-02 -1.6392586752772331e-02 -1.4538367092609406e-01 2.4697694182395935e-01 -4.3013289570808411e-02 -1.0257682949304581e-01 8.1208780407905579e-02 1.2115771882236004e-02 4.1162479668855667e-02 -1.3609656691551208e-01 -1.3908480107784271e-01 8.6379431188106537e-02 3.2824403047561646e-01 -5.5286217480897903e-02 4.6399263665080070e-03 -1.1962510645389557e-01 1.2667211890220642e-01 -1.2088900431990623e-02 7.0946224033832550e-02 -6.4367197453975677e-02 1.5631200373172760e-01 4.1673317551612854e-02 1.8156813085079193e-01 4.3115887790918350e-02 2.2126494441181421e-03 2.9032707214355469e-02 -2.4477024376392365e-01 2.8474745154380798e-01 -9.5552124083042145e-02 3.8765799254179001e-02 -1.1768775433301926e-01 1.8660007417201996e-01 -2.3289777338504791e-01 9.4105098396539688e-03 -9.7582787275314331e-02 1.0550602525472641e-01 6.1177212744951248e-02 1.0065931826829910e-02 -1.4718809723854065e-01 7.1538756601512432e-03 8.9038554579019547e-03 -9.5386825501918793e-02 -2.1131539344787598e-01 -2.3370424285531044e-02 -4.8231933265924454e-02 3.7581752985715866e-02 1.8946190830320120e-03 9.0440578758716583e-02 4.0254410356283188e-02 -6.4423575997352600e-02 -2.5546830147504807e-02 1.0951346158981323e-01 -1.3489185273647308e-01 -6.2721498310565948e-02 1.0562861710786819e-01 -1.0625293850898743e-01 -1.1091169714927673e-01 2.1654255397152156e-04 2.3595873266458511e-02 -2.4744316935539246e-01 -2.3565093055367470e-02 -2.2308599948883057e-01 -1.5582047402858734e-01 -2.1227119863033295e-01 -3.4716078639030457e-01 -1.9340422749519348e-01 -4.9729746580123901e-01 -1.2779784202575684e-01 8.8879980146884918e-02 -1.6145496070384979e-01 -2.8693901374936104e-02 -8.4416925907135010e-02 -2.5825780630111694e-01 -1.6386618837714195e-02 1.0630922019481659e-01 -1.1928857862949371e-01 -6.7973852157592773e-02 -2.6582828164100647e-01 -2.0271056890487671e-01 -1.8755750358104706e-01 -1.6935015097260475e-02 -2.1133582293987274e-01 2.9889943078160286e-02 -2.0247283577919006e-01 -1.1927721649408340e-01 2.3915891349315643e-01 -2.3007668554782867e-01 -3.3090594224631786e-03 -2.1225726604461670e-01 -2.0929594337940216e-01 -7.1147166192531586e-02 -3.3264841884374619e-02 -1.4353784918785095e-01 -1.1880326271057129e-01 -4.2327490448951721e-01 1.1285353451967239e-01 6.4424142241477966e-02 -2.0882610976696014e-01 4.0043941140174866e-01 1.3749234378337860e-01 -2.9414208605885506e-02 -8.2926794886589050e-02 8.3394616842269897e-02 -3.9958763867616653e-02 -2.1901270374655724e-02 -9.0001314878463745e-02 1.3048334419727325e-01 -2.6942204684019089e-02 3.2397419214248657e-02 -1.6163570107892156e-03 5.6474106386303902e-03 -2.3933473974466324e-02 1.2715047597885132e-01 -1.1400817334651947e-01 -3.3985474705696106e-01 -1.1607370525598526e-01 -2.1789850667119026e-02 5.5640168488025665e-02 1.3538436591625214e-01 -2.2430956363677979e-01 -4.2123518884181976e-02 -7.0790424942970276e-02 -4.5676928013563156e-02 -1.1006882041692734e-01 1.2594883143901825e-01 -2.4830457568168640e-01 -5.0953604280948639e-02 -1.0293471068143845e-01 6.2415439635515213e-02 -1.2276887893676758e-02 2.0348635315895081e-01 -5.6157432496547699e-02 -1.0699142515659332e-01 -4.4231700897216797e-01 -2.2772060334682465e-01 -5.2663254737854004e-01 1.8106031417846680e-01 5.4642874747514725e-02 -5.6632932275533676e-02 -1.1338955909013748e-01 -1.6773249208927155e-01 6.8349659442901611e-02 -2.5114339590072632e-01 -3.3084988594055176e-01 -2.3132054135203362e-02 -2.5948914885520935e-01 3.4117188304662704e-02 3.8750991225242615e-02 -1.0125396773219109e-02 -2.5683557987213135e-01 3.2081559300422668e-01 -1.8526500463485718e-01 1.0140556842088699e-02 -1.3566753268241882e-01 3.6563995480537415e-01 8.1397041678428650e-02 -1.1523839831352234e-01 3.5974927246570587e-02 -1.0437134653329849e-01 -2.1490402519702911e-02 1.0235130786895752e-01 -4.4043250381946564e-03 2.3123044520616531e-02 1.0858029127120972e-01 8.1918515264987946e-02 4.7165673226118088e-02 1.1541534960269928e-01 -8.7387943640351295e-03 6.7418674007058144e-03 2.6259331032633781e-02 -1.9990125298500061e-01 -1.6989815235137939e-01 8.9516863226890564e-02 -9.4921626150608063e-02 2.7627605199813843e-01 -2.1138300001621246e-01 -1.2800396978855133e-01 -8.5308089852333069e-02 2.5578348431736231e-03 2.3344245553016663e-01 7.2664655745029449e-02 1.2429443746805191e-01 7.7608294785022736e-02 7.1800827980041504e-02 1.7138520255684853e-02 -5.8527469635009766e-01 -1.0567385703325272e-01 7.9306755214929581e-03 -1.3362884521484375e-01 -1.7829798161983490e-01 -1.9077859818935394e-01 6.9293744862079620e-02 -1.6339325904846191e-01 -2.3070040345191956e-01 1.7276734113693237e-02 2.4587808549404144e-01 5.6859616190195084e-02 -2.1120026707649231e-01 1.1294090747833252e-01 -1.0317824035882950e-01 1.0375811718404293e-02 3.0711608007550240e-02 -1.6366620361804962e-01 -1.4508906006813049e-01 -4.6097248792648315e-02 1.3619607314467430e-02 -9.1552473604679108e-03 1.1567292362451553e-01 2.4844938516616821e-01 1.7057760059833527e-01 7.6581254601478577e-02 -7.2127275168895721e-02 -8.5425898432731628e-03 1.8151339143514633e-02 -9.5770455896854401e-02 1.4617729187011719e-01 1.6264325380325317e-01 -1.4334613084793091e-01 1.4595285058021545e-02 1.3958668708801270e-01 -1.3783346116542816e-01 1.9812878966331482e-01 1.4364247024059296e-01 -1.2940609455108643e-01 -1.4847312867641449e-01 2.4690519273281097e-01 -2.3168893158435822e-01 -7.2526976466178894e-02 -1.5293589234352112e-01 1.0131619125604630e-01 3.6856326460838318e-01 1.8934403359889984e-01 -6.8850308656692505e-02 -1.6307891905307770e-01 3.3506076782941818e-02 8.5695818066596985e-02 9.7952242940664291e-03 -1.4419218897819519e-01 9.6518062055110931e-03 2.6134679093956947e-02 -3.0980044603347778e-01 2.1419113874435425e-01 -3.5811159014701843e-01 -1.4163774251937866e-01 2.4160163104534149e-01 3.2237522304058075e-02 -2.4937445297837257e-02 -1.4122010767459869e-01 -1.5474517643451691e-01 -4.4960379600524902e-01 1.1336882412433624e-01 6.2502898275852203e-02 -7.4021057225763798e-03 2.5587120652198792e-01 9.8899722099304199e-02 8.3392731845378876e-02 -1.1311718821525574e-01 -6.2127154320478439e-02 2.3465487360954285e-01 4.1792437434196472e-01 -2.5381116196513176e-02 3.1720888614654541e-01 2.0655624568462372e-01 -1.0397059470415115e-01 -5.0666517019271851e-01 9.6400946378707886e-02 -1.8474961817264557e-01 2.6964601874351501e-01 -1.3832117617130280e-01 -5.7470835745334625e-03 -9.0484209358692169e-03 -2.8735429048538208e-01 8.8217118754982948e-03 2.7359664440155029e-01 1.9983075559139252e-01 -4.7574153542518616e-01 3.0608424916863441e-02 3.8572665303945541e-02 -3.7927888333797455e-02 1.9472768902778625e-01 -3.9305046200752258e-02 -4.1474750638008118e-01 2.4743277579545975e-02 7.9846143722534180e-02 -3.8312724232673645e-01 6.9128602743148804e-02 7.6910763978958130e-02 -1.2366244196891785e-01 1.1869873106479645e-01 3.1577490270137787e-02 1.6041910648345947e-01 -6.2977232038974762e-02 4.6120760962367058e-03 4.3396178632974625e-02 1.7660127580165863e-01 -1.3502628542482853e-02 -8.1532984972000122e-02 7.7415496110916138e-02 -1.0525082796812057e-01 -8.6614325642585754e-02 2.1607287228107452e-01 -3.8029891252517700e-01 -1.4826431870460510e-01 -4.8471413552761078e-02 -4.4297081232070923e-01 -2.0171528682112694e-02 -8.0371893942356110e-02 -3.2306155562400818e-01 -3.4425534307956696e-02 -1.5550000965595245e-01 2.6565516367554665e-02 1.0784857720136642e-01 5.7198088616132736e-02 5.8540437370538712e-02 -8.0462515354156494e-02 -1.6876858472824097e-01 -3.1789943575859070e-01 -8.3907335996627808e-02 1.3296990655362606e-02 3.1208002939820290e-02 -2.5024417787790298e-02 2.3497348651289940e-02 7.1877367794513702e-02 1.5086784958839417e-01 3.0662037897855043e-03 -6.1827707104384899e-03 6.0274556279182434e-02 7.2007730603218079e-02 7.1619391441345215e-02 -9.5770663022994995e-01 -5.4603278636932373e-02 -3.9955031126737595e-02 -5.8895122259855270e-02 1.0139877349138260e-01 -6.1652046442031860e-01 -2.0140063762664795e-01 3.9915512315928936e-03 -3.9313275367021561e-02 -1.4201286248862743e-02 3.5404630005359650e-02 -4.8929430544376373e-02 -2.5690448284149170e-01 4.6825975179672241e-02 -6.4102113246917725e-02 -1.4499913156032562e-01 -3.1453970819711685e-02 -1.3403566181659698e-01 9.2288278043270111e-02 3.9366916753351688e-03 -5.7011814787983894e-03 1.0060983896255493e-01 1.3164846599102020e-01 2.8637033700942993e-01 4.0213432163000107e-02 -6.0094874352216721e-02 -6.6457629203796387e-02 8.3976402878761292e-02 -2.2905729711055756e-01 -2.4199066683650017e-03 -8.8270880281925201e-02 -1.2415481358766556e-01 -9.0083710849285126e-02 5.7757798582315445e-02 -2.0146705210208893e-01 6.3053995370864868e-02 -3.0646657943725586e-01 -1.9698445498943329e-01 -5.4599042981863022e-02 -1.0970400273799896e-01 -3.1385827064514160e-01 -5.2709646522998810e-02 -1.4704036712646484e-01 -6.7302882671356201e-02 -3.5959777235984802e-01 -1.9422312080860138e-01 -1.4311468601226807e-01 -1.6961589455604553e-01 -3.2043911516666412e-02 -8.3436518907546997e-02 2.0482434332370758e-01 -3.2476019859313965e-01 -1.1275464296340942e-01 -2.6223048567771912e-01 3.2191175222396851e-01 -1.2027858756482601e-02 7.4827432632446289e-02 7.3778815567493439e-02 -1.1191748827695847e-01 1.6522505879402161e-01 -6.7501619458198547e-02 -5.9872426092624664e-02 -2.3659983649849892e-02 1.6196155548095703e-01 -8.2486629486083984e-02 -1.7360030114650726e-01 -1.0732665657997131e-01 2.0574235916137695e-01 -2.6313746348023415e-02 -3.0927747488021851e-02 -3.4158676862716675e-01 -1.3027356564998627e-01 5.6294370442628860e-03 -3.0377622693777084e-02 5.8598341420292854e-03 -7.3711067438125610e-02 -4.6163991093635559e-02 -1.6783235967159271e-01 -5.6360919028520584e-02 -2.1255463361740112e-01 4.2963318526744843e-02 1.5874968469142914e-01 -8.1994540989398956e-02 6.9858627393841743e-03 -3.5380089282989502e-01 -1.9902122020721436e-01 3.4363206475973129e-02 -2.5037276744842529e-01 -5.9342954307794571e-02 1.2696135044097900e-01 -1.1715752631425858e-01 2.0368526875972748e-01 -1.8077889084815979e-01 -9.0215392410755157e-02 -6.4886555075645447e-02 1.5797619521617889e-01 -1.5475302934646606e-01 4.6094514429569244e-02 1.5664146840572357e-01 1.3099022209644318e-01 -4.2545601725578308e-02 1.5882406383752823e-02 1.2615481019020081e-01 5.3747620433568954e-02 2.4009408429265022e-02 -9.0315766632556915e-02 -6.1966091394424438e-02 1.1508990079164505e-02 4.0979507565498352e-01 -1.6278073191642761e-01 -5.1143642514944077e-02 7.1536466479301453e-02 2.6158943772315979e-01 -1.3823716342449188e-01 -2.4790767580270767e-02 1.1330561339855194e-01 -7.8687340021133423e-02 -1.4711983501911163e-01 1.1073101311922073e-01 7.1072071790695190e-02 1.7807424068450928e-01 1.3354524970054626e-01 4.4430311769247055e-02 4.2827017605304718e-02 1.3692577369511127e-02 2.4871015548706055e-01 1.2594221532344818e-01 1.5694044530391693e-01 -1.0243831574916840e-01 -2.4757227301597595e-01 1.8050937354564667e-01 1.5349963307380676e-01 -1.2487917393445969e-01 5.8054223656654358e-02 -2.0217505097389221e-01 -7.2851195931434631e-02 5.6913319975137711e-02 -9.6283145248889923e-02 7.5537033379077911e-02 -1.5418294072151184e-01 -1.7631921917200089e-02 -1.1475507169961929e-01 1.9715121388435364e-01 5.1739446818828583e-02 4.6471919864416122e-02 1.0000329464673996e-01 -6.2064971774816513e-02 7.4966199696063995e-02 2.6056537032127380e-01 -2.1107365190982819e-01 -1.9623097777366638e-01 3.6180581897497177e-02 1.2104847468435764e-02 5.3813755512237549e-02 9.4245530664920807e-02 1.0780551470816135e-02 1.2267978489398956e-01 -5.1612932235002518e-02 1.2542684376239777e-01 -1.1382390558719635e-01 2.2547721862792969e-01 -8.8247276842594147e-02 9.7559891641139984e-02 -1.5065751969814301e-01 -1.3871493749320507e-02 -1.7681947350502014e-01 7.3930621147155762e-02 1.8694797158241272e-01 9.6789561212062836e-02 2.4924197793006897e-01 2.7761664986610413e-01 1.4090482890605927e-01 6.3218869268894196e-02 2.6280561089515686e-01 7.9663664102554321e-02 -1.3451807200908661e-01 -1.9404456019401550e-01 -2.2894556820392609e-01 -3.3398121595382690e-02 -2.9779082164168358e-02 6.6434100270271301e-02 5.3466167300939560e-02 1.1840605735778809e-01 1.4404943585395813e-01 -5.6884996592998505e-02 -1.4945690333843231e-01 7.7484816312789917e-02 -1.3377636671066284e-01 2.4225719273090363e-02 -4.5481618493795395e-02 -1.0637005418539047e-01 1.6595888137817383e-01 -9.9707975983619690e-02 8.7688669562339783e-02 -1.4463870227336884e-01 2.1992857754230499e-01 -8.1628754734992981e-02 -2.9591007158160210e-02 2.4841636419296265e-02 -1.6057078540325165e-01 1.5730543434619904e-01 8.5424315184354782e-03 9.2365154996514320e-03 -1.4346005022525787e-01 4.1062597185373306e-02 -1.7084911465644836e-01 -2.2768883407115936e-01 2.1568869054317474e-01 2.5346475839614868e-01 -1.1102000623941422e-01 2.8969099745154381e-02 -4.7993876039981842e-02 1.1246950924396515e-01 -1.9291970878839493e-02 -3.0069705098867416e-02 -3.0985087156295776e-01 -1.5730215236544609e-02 4.5982971787452698e-02 5.7429508306086063e-03 -1.7465755343437195e-01 -6.1889268457889557e-02 -4.0681403130292892e-02 7.8204888850450516e-03 1.4000426232814789e-01 -1.0130193084478378e-01 -1.0680636763572693e-01 2.4181494954973459e-03 1.2678147293627262e-02 7.7824346721172333e-02 -3.2588709145784378e-02 -1.4445689320564270e-01 1.2225885689258575e-01 2.9760352335870266e-03 2.1963728964328766e-01 -1.2111455947160721e-01 -7.0531018078327179e-02 -2.3344963788986206e-02 -7.2470813989639282e-02 -2.1174742281436920e-01 -4.6932861208915710e-02 -1.5455542504787445e-01 -1.9043065607547760e-01 -1.2882679700851440e-01 5.5903244763612747e-02 4.0925491601228714e-02 6.9963008165359497e-02 -1.1504191905260086e-02 -4.4072493910789490e-02 -9.6670329570770264e-02 2.2993725538253784e-01 -1.0453418642282486e-01 5.6036826223134995e-02 5.5417191237211227e-02 1.7546388506889343e-01 6.3119225203990936e-02 2.0201770961284637e-01 -1.6679449006915092e-02 -3.2324697822332382e-02 -1.9425284862518311e-01 -3.9245717227458954e-02 -1.2037480622529984e-01 -9.2354901134967804e-02 -6.9233097136020660e-02 -1.3219316489994526e-02 -2.6401537656784058e-01 2.3795999586582184e-02 3.2657641917467117e-02 -3.1068834662437439e-01 -1.2609165906906128e-01 1.3867139816284180e-01 -7.2576068341732025e-02 8.6882032454013824e-02 2.0362669229507446e-01 -1.8839602172374725e-01 -3.5286761820316315e-02 2.1299907565116882e-01 9.6451602876186371e-02 1.3788675423711538e-03 -7.4918434023857117e-02 -6.6306076943874359e-02 -1.2205164134502411e-01 -4.6663623303174973e-02 -8.1418156623840332e-02 6.0784433037042618e-02 -2.1330913901329041e-01 -8.7822517380118370e-03 2.3547014594078064e-01 -1.5553720295429230e-01 -2.9290106892585754e-01 1.1943786591291428e-01 -5.5154353380203247e-02 2.5661138817667961e-02 -1.1072275042533875e-01 -3.9224039763212204e-02 8.0718375742435455e-02 2.6853634044528008e-03 -2.4878935515880585e-01 -1.7082314938306808e-02 1.4587229490280151e-01 -2.5498190522193909e-01 2.2676624357700348e-01 1.3560195453464985e-02 3.5174274444580078e-01 -2.9994738101959229e-01 -1.4887493848800659e-01 -1.4890752732753754e-02 -3.4507405012845993e-02 -1.0124022513628006e-01 5.6122913956642151e-02 1.5897563099861145e-01 9.6110865473747253e-02 -1.8816591799259186e-01 2.1651950478553772e-01 5.8294598013162613e-02 -1.5432052314281464e-01 1.4814901351928711e-01 1.2651211023330688e-01 -2.8100991621613503e-02 6.6570930182933807e-02 9.2652305960655212e-02 2.2786046564579010e-01 8.1782743334770203e-02 -8.3558566868305206e-02 -3.1026759743690491e-01 3.7647794932126999e-02 -2.5184715632349253e-03 -2.5766801834106445e-01 1.5821123123168945e-01 3.1909327954053879e-02 -1.4354702830314636e-01 -8.3060622215270996e-02 -2.1863438189029694e-01 -1.0554890334606171e-01 -1.7209036648273468e-01 1.0614966601133347e-01 -1.6609415411949158e-01 -8.2279779016971588e-02 -2.7718421071767807e-02 -1.8628935515880585e-01 -2.9437869787216187e-02 -9.8492220044136047e-02 -5.3336773067712784e-02 -1.0893377475440502e-02 -1.0396710038185120e-01 -4.2771179229021072e-02 -2.8120333328843117e-02 7.9792879521846771e-02 -1.4341057837009430e-01 -3.3109390735626221e-01 4.3085023760795593e-02 4.1435990482568741e-02 -8.6064800620079041e-02 5.1421471871435642e-03 -7.9786591231822968e-02 -4.5862644910812378e-02 1.3716917484998703e-02 -1.3547065854072571e-01 -8.4155291318893433e-02 -5.3127072751522064e-02 -4.5226901769638062e-02 5.3435735404491425e-02 2.8568594716489315e-03 5.6020043790340424e-02 -1.6219933331012726e-01 -3.6978010088205338e-02 2.3925039172172546e-01 -1.5205436944961548e-01 6.0520548373460770e-02 7.0890113711357117e-02 -3.9181292057037354e-01 3.1247848644852638e-02 -1.2552961707115173e-01 -1.2057889997959137e-01 7.2788648307323456e-02 1.1481294035911560e-01 -2.3085838556289673e-01 1.4587013423442841e-01 2.5624340772628784e-01 7.3324732482433319e-02 8.0347709357738495e-02 -1.2151794880628586e-01 -1.0899682343006134e-01 4.0719043463468552e-02 -1.1718367785215378e-01 1.6182227060198784e-02 2.1991237998008728e-02 -5.6944254785776138e-02 -2.6559790596365929e-02 -2.2257107496261597e-01 -2.0542052388191223e-01 5.7577755302190781e-02 -9.5024198293685913e-02 -9.1112367808818817e-03 -9.7516119480133057e-02 2.2570053115487099e-02 2.9190003871917725e-01 -6.7167147994041443e-02 -5.2825178951025009e-02 8.9901216328144073e-02 8.2188390195369720e-02 6.4017936587333679e-02 -4.2051136493682861e-02 1.1478830873966217e-01 -2.7125754952430725e-01 -6.3376821577548981e-02 -2.2006580606102943e-02 -7.7165253460407257e-02 2.4650521576404572e-01 -1.4723092317581177e-01 8.7077125906944275e-02 9.0209571644663811e-03 -2.3152815178036690e-02 -1.8655989319086075e-02 1.5340150892734528e-01 -1.9420828670263290e-02 7.2616361081600189e-02 3.8351796567440033e-02 -8.3943232893943787e-02 -3.2343287020921707e-02 -1.1932652443647385e-01 -3.9513673633337021e-02 2.4420394003391266e-01 -3.8062989711761475e-02 -3.8438260555267334e-02 -1.0431415587663651e-01 -1.3998707756400108e-02 -1.2213296443223953e-01 -8.8692732155323029e-02 -9.7307093441486359e-02 -1.3281245529651642e-01 4.2393613606691360e-02 -1.8499722704291344e-02 -9.6002994105219841e-03 -2.5426859036087990e-02 2.1488499641418457e-01 -1.2868937849998474e-01 4.9256477504968643e-02 -3.4832306206226349e-02 -4.8110947012901306e-02 1.2581330724060535e-02 1.1806854745373130e-03 1.4173460006713867e-01 -6.0569480061531067e-02 -1.6839349642395973e-02 5.5206425487995148e-02 -1.0040711611509323e-01 2.9348639771342278e-02 -2.3870648443698883e-01 2.5772880762815475e-02 -1.1808837950229645e-01 -6.0825020074844360e-02 -2.3177449405193329e-01 1.4979462325572968e-01 1.2465878576040268e-01 -1.7515482008457184e-01 -1.5638026595115662e-01 -7.5279199518263340e-03 3.2925058156251907e-02 -4.3757311999797821e-02 -2.7249356731772423e-02 -1.3659234344959259e-01 -5.2219375967979431e-02 1.9193751504644752e-03 -1.0016542673110962e-01 9.3387803062796593e-03 -1.7436128854751587e-01 -3.9347741007804871e-01 -7.7371723949909210e-02 3.0061859637498856e-02 9.8872080445289612e-02 1.3161604106426239e-01 -1.4915983378887177e-01 -6.0108747333288193e-02 -1.5209411084651947e-01 -1.0210289061069489e-01 -1.8790684640407562e-01 -3.8057267665863037e-02 1.1043504625558853e-01 1.3667201995849609e-01 -1.7159096896648407e-01 7.9753227531909943e-02 2.1286249160766602e-01 -4.0928139351308346e-03 1.3298593461513519e-01 1.1364287137985229e-01 -2.3220854997634888e-01 -3.9586204290390015e-01 1.8413582444190979e-01 -2.6248747110366821e-01 -1.0826541483402252e-01 7.1082741022109985e-02 7.6685161329805851e-03 4.9102909862995148e-02 4.3058387935161591e-02 1.3772676885128021e-01 -1.9798673689365387e-01 1.4975780248641968e-01 -7.6590746641159058e-02 1.7325554043054581e-02 1.8728679418563843e-01 2.0953135564923286e-02 1.0267640650272369e-01 -2.5426981970667839e-02 5.9083267115056515e-03 -9.6592595800757408e-03 1.9881889224052429e-01 -1.4145754277706146e-01 -7.9862840473651886e-02 1.2160602211952209e-01 -5.5260878056287766e-02 1.1934078484773636e-01 -9.9797718226909637e-02 1.1804204434156418e-01 -2.4433399736881256e-01 -9.4084084033966064e-02 3.2141100615262985e-02 -1.7526578158140182e-02 2.4002495408058167e-01 -3.6523774266242981e-02 -1.0602641105651855e-01 -2.5293624028563499e-02 1.5662246942520142e-01 5.5464231967926025e-01 1.2276108562946320e-01 1.4779159426689148e-01 -1.8003937602043152e-01 1.0388699918985367e-01 -4.5082330703735352e-02 -1.0656402260065079e-01 -2.5072059035301208e-01 -1.7462450265884399e-01 -5.3883787244558334e-02 9.8310172557830811e-02 -1.7371740937232971e-01 -9.8326452076435089e-02 -6.3914418220520020e-02 -1.6594672203063965e-01 4.7576542943716049e-02 -2.8100922703742981e-01 -2.4159006774425507e-01 8.9213222265243530e-02 2.1375641226768494e-02 -2.6815837621688843e-01 1.0459669679403305e-01 7.9632498323917389e-02 -3.7177171558141708e-02 1.3760565221309662e-01 7.1494884788990021e-02 2.0529536902904510e-01 1.7627313733100891e-01 2.4100555479526520e-01 -1.3323451578617096e-01 -1.2218523770570755e-01 2.9849055409431458e-01 1.6537325084209442e-01 1.9696207344532013e-01 -2.4667313322424889e-02 1.6016145050525665e-01 -1.2497331947088242e-01 1.6504921019077301e-02 9.4016201794147491e-02 1.2242731451988220e-01 -2.2530564665794373e-01 1.8312443047761917e-02 1.8941344320774078e-01 7.3122560977935791e-02 1.5729163587093353e-01 -9.4620548188686371e-02 -2.1958945319056511e-02 -2.2248488664627075e-01 1.6676969826221466e-02 -9.2978039756417274e-03 3.3196289092302322e-02 3.8297856226563454e-03 4.0899116545915604e-02 5.1734089851379395e-02 1.6950941085815430e-01 -5.9609096497297287e-02 -8.6408711969852448e-02 -9.6702381968498230e-02 -1.9226630032062531e-01 1.4564556069672108e-02 1.0716677457094193e-01 9.8728202283382416e-02 -2.6822181418538094e-02 -2.3456755280494690e-01 9.7888864576816559e-02 -9.7341328859329224e-02 -3.7361938506364822e-02 -7.9375237226486206e-02 1.8231645226478577e-01 -5.5163452634587884e-04 -1.0934079997241497e-02 1.6225564479827881e-01 1.3240526616573334e-01 1.6072750091552734e-01 -1.1127235367894173e-02 -1.8839477002620697e-01 1.0098227858543396e-01 -1.0462806373834610e-01 2.8692883253097534e-01 -1.5978147089481354e-01 -9.4072103500366211e-02 -1.4431849122047424e-01 7.0909246802330017e-02 1.4947108924388885e-01 2.3795504868030548e-01 5.3307440131902695e-02 1.4505626261234283e-01 8.3634145557880402e-02 1.8509766086935997e-02 -1.0500662028789520e-01 3.6357879638671875e-02 2.0412024855613708e-01 -1.8973097205162048e-01 6.9902668474242091e-04 -2.1087375283241272e-01 -1.2808565795421600e-01 1.5390482544898987e-01 -2.7211748529225588e-03 1.7034605145454407e-01 -1.4686506986618042e-01 3.6999404430389404e-02 -7.6509397476911545e-03 -5.2422042936086655e-02 -4.8374000936746597e-02 -1.3812476396560669e-01 -1.6368354856967926e-01 5.0466127693653107e-02 1.5735541284084320e-01 1.7070932686328888e-01 -4.1821427643299103e-02 9.3129619956016541e-02 3.1959918141365051e-01 1.1820451915264130e-01 1.0428863018751144e-01 -1.7496433854103088e-01 2.9274096712470055e-02 -2.8758278489112854e-01 1.5119765698909760e-01 7.5197547674179077e-02 1.1852786689996719e-01 7.7437885105609894e-02 1.2524288892745972e-01 1.5585255622863770e-01 1.2977012991905212e-01 -2.2989253699779510e-01 -8.9387632906436920e-02 -1.8939049541950226e-01 3.2269541174173355e-02 2.5842934846878052e-01 -5.6321751326322556e-03 3.2240405678749084e-02 2.6907324790954590e-01 2.2188028693199158e-01 -6.0623783618211746e-02 1.3481440022587776e-02 4.6735323965549469e-02 8.9680328965187073e-02 2.5058710575103760e-01 3.1071456149220467e-02 5.5808879435062408e-02 2.3102553188800812e-01 -4.3714627623558044e-02 5.6095761060714722e-01 1.2791945040225983e-01 -9.0196035802364349e-02 4.8451438546180725e-02 -2.9623413458466530e-02 -3.8906505703926086e-01 5.0165662541985512e-03 1.5048825182020664e-02 3.0430942773818970e-01 4.3494692072272301e-03 2.5983646512031555e-01 -1.9377037882804871e-01 -2.1946065127849579e-02 -1.4945289120078087e-02 -1.6389140486717224e-01 -3.2083079218864441e-01 -1.3840433955192566e-01 1.6011288762092590e-01 -1.6229088604450226e-01 5.1832441240549088e-02 5.3702149540185928e-02 1.4779353141784668e-01 -1.3037700951099396e-01 1.9281148910522461e-01 3.6271765828132629e-01 -1.1936003714799881e-01 1.6112798452377319e-01 2.0056131482124329e-01 -2.2359311580657959e-02 8.6093403398990631e-02 9.6139326691627502e-02 6.1418846249580383e-02 2.1109767258167267e-01 -9.5929861068725586e-02 -2.7123078703880310e-01 1.8089328706264496e-01 1.5845356881618500e-01 1.4472651481628418e-01 1.5526373684406281e-01 3.2569059729576111e-01 2.9802387952804565e-01 6.0572285205125809e-02 -6.9560080766677856e-02 2.0528323948383331e-01 3.9868629537522793e-03 1.0351221263408661e-01 1.4923280477523804e-01 1.8919865787029266e-01 1.7266359925270081e-01 1.5273359417915344e-01 4.3756514787673950e-02 2.4155889451503754e-01 2.6773315668106079e-01 8.5884168744087219e-02 2.4559129774570465e-01 3.8177516311407089e-02 3.0250260233879089e-01 1.0209716111421585e-01 2.8976187109947205e-01 -7.2686359286308289e-02 1.9007173180580139e-01 1.8661424517631531e-01 -2.8681745752692223e-02 1.7979945242404938e-01 4.6583823859691620e-02 1.4825202524662018e-01 -5.0805233418941498e-02 2.8967940807342529e-01 -2.0024571567773819e-02 1.7832109332084656e-01 -2.0079457759857178e-01 4.0229719132184982e-02 2.3747321963310242e-01 -6.9792002439498901e-02 1.7370475828647614e-01 -2.0238279830664396e-03 1.0201720148324966e-01 2.7202442288398743e-01 -1.3687778264284134e-02 8.1403657793998718e-02 3.4799141576513648e-04 -6.3952192664146423e-02 1.0533213615417480e-01 -1.0282602161169052e-01 2.8486481308937073e-01 -6.8101227283477783e-02 4.1909143328666687e-02 2.7605780959129333e-01 8.2100018858909607e-02 -1.3766352832317352e-01 1.9621920585632324e-01 -1.1589197069406509e-01 -1.2913838028907776e-01 1.5901599824428558e-01 7.9773172736167908e-02 -7.3423132300376892e-02 8.8718250393867493e-02 2.6039337739348412e-02 5.8603540062904358e-02 1.7834417521953583e-01 5.5555086582899094e-02 -2.5139895081520081e-01 -2.6741053909063339e-02 1.2442592531442642e-01 1.4433653652667999e-01 8.6095936596393585e-02 4.5565807819366455e-01 1.9762454926967621e-01 -7.7937930822372437e-02 -1.0429277271032333e-01 6.9374717772006989e-02 -8.6289934813976288e-02 -1.8630671501159668e-01 2.2366404533386230e-01 3.8177043199539185e-01 -2.7149367332458496e-01 4.9539409577846527e-02 1.9691403210163116e-01 -9.1279409825801849e-03 4.5899335294961929e-02 1.5545006096363068e-01 1.4754189550876617e-01 -2.7371811866760254e-01 -3.2706829905509949e-01 -8.0262959003448486e-02 1.6463340818881989e-01 4.3115696310997009e-01 1.4976957812905312e-02 1.7248612642288208e-01 2.7679681777954102e-01 -8.7440133094787598e-02 1.6350390017032623e-01 1.5968145430088043e-01 -3.5631235688924789e-02 1.1234932392835617e-01 1.8632304668426514e-01 2.3271390795707703e-01 3.1200505793094635e-02 2.9078736901283264e-01 2.5032514333724976e-01 -1.4311042428016663e-01 1.4758135378360748e-01 2.3372359573841095e-01 2.4505874514579773e-01 1.9745184481143951e-01 2.8823140263557434e-01 -1.5941148623824120e-02 1.4284685254096985e-01 5.1769953966140747e-01 -1.3396251201629639e-01 5.8083868026733398e-01 2.7890023193322122e-04 -4.0187671780586243e-02 4.0954309701919556e-01 1.5116544067859650e-01 -2.9214340448379517e-01 1.2713040411472321e-01 1.7486688494682312e-01 6.6715106368064880e-02 3.5212612152099609e-01 -1.0606677085161209e-01 2.8644809126853943e-01 3.3680625259876251e-02 3.5015426110476255e-03 3.5977303981781006e-01 -1.2808004021644592e-01 2.3865025490522385e-02 1.5664640069007874e-01 1.6888726502656937e-02 2.0129762589931488e-01 1.4286166429519653e-01 -1.0117122530937195e-01 3.3746844530105591e-01 3.2469582557678223e-01 1.0656671226024628e-01 4.9117729067802429e-02 2.5175032019615173e-01 4.1225305199623108e-01 -3.4149512648582458e-01 1.1274741590023041e-01 2.5461372733116150e-01 -3.2949671149253845e-02 3.2091382145881653e-01 -7.3212809860706329e-02 -1.7207077145576477e-01 5.2904152870178223e-01 2.1217948198318481e-01 6.8710148334503174e-02 2.6475176215171814e-01 3.7786924839019775e-01 2.6218640804290771e-01 1.1592180468142033e-02 1.7468856275081635e-01 4.9391757696866989e-02 1.4527356624603271e-01 3.6190021038055420e-01 1.2838971801102161e-02 -2.4601262807846069e-01 2.5179630517959595e-01 3.1213781237602234e-01 1.5385150909423828e-01 3.0733761191368103e-01 2.1505118906497955e-01 -6.7204266786575317e-02 3.9581361413002014e-01 -6.1582967638969421e-02 1.2057097256183624e-01 2.5105279684066772e-01 1.9045557081699371e-01 9.3459054827690125e-02 3.0710217356681824e-01 1.6099542379379272e-01 -1.9797749817371368e-01 5.0205688923597336e-02 -1.7126841843128204e-01 -2.4180555716156960e-02 -1.2508174777030945e-01 -6.1919063329696655e-02 3.1632989645004272e-02 1.4271946856752038e-03 -1.1090700328350067e-01 1.3115648925304413e-01 4.5383754372596741e-01 -3.9500962942838669e-02 -6.6401302814483643e-02 9.3254446983337402e-02 2.7027699351310730e-01 6.9989144802093506e-01 3.6557286977767944e-01 -1.9525995850563049e-01 -1.8900503218173981e-01 2.4109387397766113e-01 -7.8684799373149872e-02 3.4086206555366516e-01 3.6405679583549500e-01 -1.3507738709449768e-01 -2.0779308676719666e-01 7.7959403395652771e-02 1.6817788779735565e-01 -2.9877445101737976e-01 1.6768479347229004e-01 8.1398144364356995e-02 -6.4945369958877563e-02 2.2684183716773987e-01 4.3677605688571930e-02 3.8492673635482788e-01 3.2202202081680298e-01 -1.3070711493492126e-01 1.2299571186304092e-01 4.7273358702659607e-01 2.4490854144096375e-01 6.4483352005481720e-02 1.7102470993995667e-01 -4.3117299675941467e-01 5.6088793277740479e-01 -4.8778437077999115e-02 2.5960668921470642e-01 8.9024364948272705e-02 -5.5967688560485840e-01 -5.4596439003944397e-02 1.1891406774520874e-01 -5.6116621941328049e-02 -1.5441240370273590e-01 1.0775928199291229e-01 -6.0439657419919968e-02 -2.7464430779218674e-02 -1.5227706730365753e-01 1.1226447299122810e-02 -4.0599893778562546e-02 -3.3343691378831863e-02 -1.3764978945255280e-01 1.3652549125254154e-02 -3.3473405987024307e-02 -1.1932664364576340e-01 -2.6058375835418701e-01 -7.9713679850101471e-02 -2.4677568674087524e-01 -2.2445274889469147e-01 2.5641533732414246e-01 2.5004607439041138e-01 5.3370673209428787e-02 -8.0558791756629944e-02 6.0306280851364136e-02 -2.3606234788894653e-01 1.9658250734210014e-02 -1.7761741578578949e-01 -1.0913836956024170e-01 -5.7439461350440979e-02 -2.7769827283918858e-03 -4.4915888458490372e-02 -2.9323896765708923e-01 -6.1719425022602081e-02 -1.5596635639667511e-01 -3.0158463865518570e-02 3.9623949676752090e-02 -6.0503717511892319e-02 1.1879544705152512e-01 -2.3958073556423187e-01 2.5231573730707169e-02 -1.7289014160633087e-01 -1.7800111323595047e-02 2.3347651958465576e-01 -4.0732690691947937e-01 -2.7321076020598412e-02 2.5986126065254211e-01 -3.5571461915969849e-01 4.9427665770053864e-02 2.0852174609899521e-02 1.8274266039952636e-03 8.0380789935588837e-02 6.5135627985000610e-02 3.7998255342245102e-02 -2.3108064197003841e-03 -1.2935793399810791e-01 3.1816344708204269e-02 -1.2833528220653534e-01 3.4011185169219971e-02 -5.4058837890625000e-01 6.0391969978809357e-02 -3.9963096380233765e-01 4.7947965562343597e-02 1.4483235776424408e-01 -3.6741632968187332e-02 5.1393032073974609e-02 1.0533348657190800e-02 1.7405662685632706e-02 -5.3091887384653091e-02 -1.4712363481521606e-01 4.3689709156751633e-02 -5.9579849243164062e-02 -2.3790306877344847e-03 1.5679004788398743e-01 -2.0051227509975433e-01 -8.5253380239009857e-02 3.2278522849082947e-02 -1.1736405640840530e-01 -5.3167741745710373e-02 -8.6160100996494293e-02 -8.0527998507022858e-02 -7.1018591523170471e-02 -1.5487086772918701e-01 -1.2718950212001801e-01 1.4322075247764587e-01 -2.4429665505886078e-01 -1.4764812588691711e-01 1.2775331735610962e-01 -2.2792108356952667e-01 -2.4338066577911377e-01 1.8663335591554642e-02 -4.8615403473377228e-02 -1.0404308140277863e-01 -6.4782902598381042e-02 9.9300913512706757e-02 -1.8027611076831818e-01 1.3106389902532101e-02 -1.2115032970905304e-01 1.0949749499559402e-02 4.0910881944000721e-03 -3.2184869050979614e-01 -5.4927349090576172e-02 1.6511967778205872e-01 -2.4921168386936188e-01 1.3297936320304871e-01 2.2002737224102020e-01 -9.5029979944229126e-02 -4.1922673583030701e-02 -1.8272049725055695e-01 2.7241382002830505e-01 -2.1530230343341827e-01 -1.2836143374443054e-01 -5.3435750305652618e-02 -2.7126303315162659e-01 -5.6082643568515778e-02 2.0181983709335327e-01 -1.5349780023097992e-01 1.0999687016010284e-01 -9.4659343361854553e-02 1.0287831723690033e-01 -7.0838704705238342e-02 8.5940003395080566e-02 -4.3888200074434280e-02 5.6850068271160126e-02 -3.3895038068294525e-02 -2.0025548338890076e-01 -2.3491983115673065e-01 -4.3536204844713211e-02 -2.9745176434516907e-01 -1.8369719386100769e-01 -1.6849497333168983e-02 -2.3432902991771698e-02 1.9591460004448891e-03 -1.6702046990394592e-01 9.2503251507878304e-03 -8.5748814046382904e-02 -9.3993775546550751e-02 -2.6917060837149620e-02 7.3274418711662292e-02 1.0321159847080708e-02 1.4452394843101501e-01 -2.3157027363777161e-01 -8.7566055357456207e-02 3.4269951283931732e-02 -1.6706602275371552e-01 -2.4163745343685150e-02 2.1274464204907417e-02 9.0040257200598717e-03 -1.0577712208032608e-01 -1.5267778933048248e-01 1.5917716920375824e-01 -8.5487499833106995e-02 -1.8487486243247986e-01 -1.4895503409206867e-02 1.5560697019100189e-01 1.9884932041168213e-01 2.6109316945075989e-01 -1.9556018710136414e-01 -3.8396123796701431e-02 1.8492668867111206e-02 8.6548954248428345e-02 -7.0591690018773079e-03 4.2949099093675613e-02 -4.9025073647499084e-02 -3.6545118689537048e-01 -1.8651932477951050e-01 -1.8320956826210022e-01 -9.4277545809745789e-02 5.2340934053063393e-03 -1.0710103809833527e-01 6.0653812251985073e-03 -1.2965846061706543e-01 -1.2431847304105759e-01 7.2572350502014160e-02 -1.0836425423622131e-01 3.0504766851663589e-02 -2.4175755679607391e-01 -1.7029045522212982e-01 2.9862853884696960e-01 1.7211566865444183e-01 1.6941072419285774e-02 8.2831397652626038e-02 8.0787107348442078e-02 3.0449891090393066e-01 7.9112276434898376e-03 1.7126250267028809e-01 3.5181608982384205e-03 -2.1968682110309601e-01 1.1189655214548111e-01 7.6919116079807281e-02 -5.6345397606492043e-03 1.3152241706848145e-01 7.6587311923503876e-02 5.1093876361846924e-02 2.4681517481803894e-01 1.3487347960472107e-01 1.3410307466983795e-01 4.2147599160671234e-02 -2.4696609005331993e-02 5.9536375105381012e-02 -1.4548350870609283e-01 -2.2334145382046700e-02 1.2388719618320465e-01 -1.4536908268928528e-01 -1.5179577469825745e-01 1.6756132245063782e-01 -1.2273665517568588e-01 1.5027432702481747e-02 -1.2173322588205338e-01 4.4973704963922501e-02 -2.6171064376831055e-01 -2.8138950467109680e-01 -2.4748073518276215e-01 -7.5563728809356689e-02 -5.9101545048179105e-05 -4.2235728353261948e-02 1.7683500051498413e-01 -1.7220313847064972e-01 2.9298055171966553e-01 9.8371319472789764e-02 8.1039937213063240e-03 1.4093539118766785e-01 -2.8238594532012939e-01 1.5725633502006531e-01 -3.9284717291593552e-02 -5.9017594903707504e-02 -6.7183174192905426e-02 1.5432535111904144e-01 1.3443745672702789e-01 -2.2833597660064697e-01 -2.4124098941683769e-02 6.8963594734668732e-02 -7.6667912304401398e-02 2.4755306541919708e-01 1.4295518398284912e-01 -2.1182440221309662e-02 -1.1221587657928467e-01 1.9307754933834076e-01 -5.2710492163896561e-02 4.7611084301024675e-04 1.4777083694934845e-01 1.1634351313114166e-01 1.0747306048870087e-01 -7.7479995787143707e-02 7.0519089698791504e-02 -8.6629703640937805e-02 9.0767994523048401e-02 -8.8242560625076294e-02 7.2914943099021912e-02 1.9005994498729706e-01 3.9306025952100754e-02 1.8016339838504791e-01 5.0329440832138062e-01 2.8080154210329056e-02 -1.0388854146003723e-01 -1.8412229418754578e-01 -9.3540631234645844e-02 -2.8985235095024109e-01 -3.0671886634081602e-03 -2.9045136645436287e-02 3.9582278579473495e-02 -1.8451280891895294e-01 -2.0105367898941040e-01 1.3233007490634918e-01 3.2237830758094788e-01 2.2841051220893860e-01 1.1139249056577682e-01 1.2982770800590515e-02 3.4222446847707033e-03 9.5505520701408386e-02 3.2049998641014099e-01 -4.4585984200239182e-02 6.4855106174945831e-02 -3.6996640264987946e-02 -3.8334453105926514e-01 -6.4934395253658295e-02 2.8458809852600098e-01 -2.6483127474784851e-01 2.2465831041336060e-01 8.0922164022922516e-02 2.3041938245296478e-01 7.9904198646545410e-02 1.8976342678070068e-01 4.4997408986091614e-01 2.0842953026294708e-01 -8.7978422641754150e-02 1.1134032160043716e-01 -4.9523826688528061e-02 4.3912535905838013e-01 -5.1998905837535858e-02 3.9735892415046692e-01 -1.1323182284832001e-01 -2.5568628311157227e-01 -8.4809154272079468e-02 3.1400639563798904e-02 1.5223611891269684e-01 5.1765315234661102e-02 3.2862797379493713e-03 1.6451336443424225e-01 1.8832702934741974e-01 -3.7932419776916504e-01 1.5936173498630524e-02 -1.4461882412433624e-01 3.7838883697986603e-02 -4.1470434516668320e-02 -2.3273143172264099e-01 -5.2037943154573441e-02 -2.3927560448646545e-01 -9.4717815518379211e-02 -1.1584175378084183e-01 -1.5688818693161011e-01 -2.7062612771987915e-01 -1.8680007755756378e-01 -2.2216685116291046e-01 4.0626424551010132e-01 