<?xml version="1.0"?>
<MethodSetup Method="DNN::DNN">
  <GeneralInfo>
    <Info name="TMVA Release" value="4.2.1 [262657]"/>
    <Info name="ROOT Release" value="6.18/04 [397828]"/>
    <Info name="Creator" value="aman"/>
    <Info name="Date" value="Tue Nov 24 11:17:59 2020"/>
    <Info name="Host" value="Linux coast 5.4.0-29-generic #33-Ubuntu SMP Wed Apr 29 14:32:27 UTC 2020 x86_64 x86_64 x86_64 GNU/Linux"/>
    <Info name="Dir" value="/home/aman/root/LIPs/train5_dnn"/>
    <Info name="Training events" value="403150"/>
    <Info name="TrainingTime" value="7.81676417e+02"/>
    <Info name="AnalysisType" value="Classification"/>
  </GeneralInfo>
  <Options>
    <Option name="V" modified="No">False</Option>
    <Option name="VerbosityLevel" modified="No">Default</Option>
    <Option name="VarTransform" modified="No">None</Option>
    <Option name="H" modified="No">False</Option>
    <Option name="CreateMVAPdfs" modified="No">False</Option>
    <Option name="IgnoreNegWeightsInTraining" modified="No">False</Option>
    <Option name="Layout" modified="Yes">RELU|15,RELU|10,RELU|5,SOFTSIGN</Option>
    <Option name="ValidationSize" modified="No">20%</Option>
    <Option name="ErrorStrategy" modified="No">CROSSENTROPY</Option>
    <Option name="WeightInitialization" modified="No">XAVIER</Option>
    <Option name="Architecture" modified="Yes">GPU</Option>
    <Option name="TrainingStrategy" modified="Yes">LearningRate=1e-1,Momentum=0.3,Repetitions=3,ConvergenceSteps=20,BatchSize=30,TestRepetitions=10|LearningRate=1e-4,Momentum=0,Repetitions=3,ConvergenceSteps=50,BatchSize=30,TestRepetitions=10,Multithreading=True</Option>
  </Options>
  <Variables NVar="15">
    <Variable VarIndex="0" Expression="Edep1" Label="Edep1" Title="Edep1" Unit="" Internal="Edep1" Type="F" Min="0.00000000e+00" Max="7.37154770e+01"/>
    <Variable VarIndex="1" Expression="Edep2" Label="Edep2" Title="Edep2" Unit="" Internal="Edep2" Type="F" Min="0.00000000e+00" Max="6.67621155e+01"/>
    <Variable VarIndex="2" Expression="Edep3" Label="Edep3" Title="Edep3" Unit="" Internal="Edep3" Type="F" Min="0.00000000e+00" Max="7.02827301e+01"/>
    <Variable VarIndex="3" Expression="Edep4" Label="Edep4" Title="Edep4" Unit="" Internal="Edep4" Type="F" Min="0.00000000e+00" Max="6.99244614e+01"/>
    <Variable VarIndex="4" Expression="Edep5" Label="Edep5" Title="Edep5" Unit="" Internal="Edep5" Type="F" Min="0.00000000e+00" Max="7.41126099e+01"/>
    <Variable VarIndex="5" Expression="Edep6" Label="Edep6" Title="Edep6" Unit="" Internal="Edep6" Type="F" Min="0.00000000e+00" Max="6.73483810e+01"/>
    <Variable VarIndex="6" Expression="Edep7" Label="Edep7" Title="Edep7" Unit="" Internal="Edep7" Type="F" Min="0.00000000e+00" Max="6.84781265e+01"/>
    <Variable VarIndex="7" Expression="Edep8" Label="Edep8" Title="Edep8" Unit="" Internal="Edep8" Type="F" Min="0.00000000e+00" Max="6.86814880e+01"/>
    <Variable VarIndex="8" Expression="Edep9" Label="Edep9" Title="Edep9" Unit="" Internal="Edep9" Type="F" Min="0.00000000e+00" Max="7.09674454e+01"/>
    <Variable VarIndex="9" Expression="Edep10" Label="Edep10" Title="Edep10" Unit="" Internal="Edep10" Type="F" Min="0.00000000e+00" Max="7.22710190e+01"/>
    <Variable VarIndex="10" Expression="Edep11" Label="Edep11" Title="Edep11" Unit="" Internal="Edep11" Type="F" Min="0.00000000e+00" Max="6.72124481e+01"/>
    <Variable VarIndex="11" Expression="Edep12" Label="Edep12" Title="Edep12" Unit="" Internal="Edep12" Type="F" Min="0.00000000e+00" Max="7.10000687e+01"/>
    <Variable VarIndex="12" Expression="Edep13" Label="Edep13" Title="Edep13" Unit="" Internal="Edep13" Type="F" Min="0.00000000e+00" Max="7.53640747e+01"/>
    <Variable VarIndex="13" Expression="Edep14" Label="Edep14" Title="Edep14" Unit="" Internal="Edep14" Type="F" Min="0.00000000e+00" Max="6.86384277e+01"/>
    <Variable VarIndex="14" Expression="Edep15" Label="Edep15" Title="Edep15" Unit="" Internal="Edep15" Type="F" Min="0.00000000e+00" Max="7.26423798e+01"/>
  </Variables>
  <Spectators NSpec="0"/>
  <Classes NClass="2">
    <Class Name="Signal" Index="0"/>
    <Class Name="Background" Index="1"/>
  </Classes>
  <Transformations NTransformations="0"/>
  <MVAPdfs/>
  <Weights InputWidth="15" Depth="4" LossFunction="C" OutputFunction="S">
    <Layer ActivationFunction="1">
      <Weights rows="15" cols="15">
        -8.9588791131973267e-01 7.8826904296875000e-02 8.6847960948944092e-01 6.8638497591018677e-01 -2.9787192121148109e-02 -8.9464533329010010e-01 -1.5605890750885010e-01 -1.2188807725906372e+00 -4.7606435418128967e-01 4.4363182783126831e-01 8.5929912328720093e-01 2.5006869435310364e-01 -7.6332342624664307e-01 -9.3369585275650024e-01 -2.3940181359648705e-02 -5.5134329795837402e+00 -2.8043270111083984e+00 2.7441099286079407e-01 -5.9456768035888672e+00 2.3728196322917938e-01 4.6376037597656250e-01 -5.5654082298278809e+00 -4.6357622146606445e+00 -4.7437386512756348e+00 -5.0552401542663574e+00 -2.4212906360626221e+00 -4.1089906692504883e+00 6.5424787998199463e-01 -4.7973794937133789e+00 9.1532450914382935e-01 -2.8786923885345459e+00 -3.9532535076141357e+00 -4.7042179107666016e+00 -2.6684572696685791e+00 -4.3953385353088379e+00 -4.6994185447692871e+00 3.8063296675682068e-01 -3.4116346836090088e+00 1.6259849071502686e+00 -2.4535689353942871e+00 -3.2150838375091553e+00 1.4453680515289307e+00 -5.7079930305480957e+00 -3.7354559898376465e+00 -4.2201590538024902e+00 -4.4460287690162659e-01 -1.3896604776382446e+00 -8.5336387157440186e-01 9.2597496509552002e-01 1.3276511430740356e+00 2.1204662322998047e-01 -7.5343197584152222e-01 3.8851740956306458e-01 1.6027767956256866e-01 -3.8251572847366333e-01 -1.0683077573776245e+00 -2.1958765387535095e-01 2.0920224487781525e-01 5.0020343065261841e-01 3.9756748080253601e-01 5.4603940248489380e-01 2.6479184627532959e-01 -4.1265806555747986e-01 -1.3049432635307312e-01 -1.0718443393707275e+00 -5.8378642797470093e-01 -7.1246337890625000e-01 -4.3730932474136353e-01 -1.3052296638488770e+00 -4.7179096937179565e-01 -7.8058391809463501e-02 9.4026046991348267e-01 1.3723280429840088e+00 5.5572807788848877e-01 8.3929675817489624e-01 2.5959125161170959e-01 9.6845857799053192e-02 -1.9269692897796631e+00 -2.8010049462318420e-01 -1.9151730537414551e+00 1.2249109745025635e+00 -1.1163060665130615e+00 -1.2297919988632202e+00 -7.6126527786254883e-01 1.6079832315444946e+00 -1.0336804389953613e+00 -9.9417012929916382e-01 -7.2921305894851685e-01 -2.1060605347156525e-01 1.5269954204559326e+00 -1.1917736530303955e+00 -1.0369520187377930e+00 -2.8026115894317627e-01 -8.6652207374572754e-01 -1.1773972511291504e+00 -1.1946368217468262e+00 6.7489904165267944e-01 1.3086113929748535e+00 -1.3098795413970947e+00 -9.6419501304626465e-01 -1.0931392908096313e+00 -1.0712161064147949e+00 6.0510003566741943e-01 1.3451204299926758e+00 -1.2981817722320557e+00 1.3548249006271362e+00 1.5556893348693848e+00 6.4027124643325806e-01 -1.8348318338394165e-01 9.9327707290649414e-01 6.9288134574890137e-01 1.2822805643081665e+00 6.3671648502349854e-02 4.9484021961688995e-02 -1.4906042814254761e-01 1.1989556998014450e-01 2.0143347978591919e-01 -3.6456304788589478e-01 -1.0722202062606812e+00 -8.6381512880325317e-01 4.0682935714721680e-01 -9.9455815553665161e-01 -5.6012165546417236e-01 -6.0874909162521362e-01 -8.0945923924446106e-02 9.7834831476211548e-01 1.0572661161422729e+00 8.7398451566696167e-01 1.0649838447570801e+00 9.1840618848800659e-01 9.0635365247726440e-01 9.0592223405838013e-01 3.3726289868354797e-01 1.2978361546993256e-01 -9.3748807907104492e-01 -1.6949431896209717e+00 -9.5682495832443237e-01 -1.3875160217285156e+00 -1.3446724414825439e+00 -1.8745210170745850e+00 -1.4077229499816895e+00 -1.7814258337020874e+00 -1.0330796241760254e+00 -1.7187954187393188e+00 -1.4311499595642090e+00 -1.4870110750198364e+00 -1.4462931156158447e+00 -2.0874373912811279e+00 -1.2346292734146118e+00 -1.6684080362319946e+00 7.4877637624740601e-01 -2.4469912052154541e+00 1.5664495229721069e+00 -7.0691412687301636e-01 -1.7484700679779053e+00 -1.5659586191177368e+00 -5.3873592615127563e-01 -2.4237720668315887e-01 -6.0430473089218140e-01 -1.1285194158554077e+00 2.4894747734069824e+00 -2.3245680332183838e+00 1.3671884536743164e+00 -2.3397111892700195e+00 -3.1501191854476929e-01 6.7253410816192627e-01 -1.4821366071701050e+00 -1.5792056322097778e+00 -1.1325452327728271e+00 2.5619840621948242e+00 -2.4913318157196045e+00 2.1006991863250732e+00 -4.3245739936828613e+00 7.1987098455429077e-01 -3.2534462213516235e-01 -8.4607166051864624e-01 -9.1647177934646606e-01 -7.4608463048934937e-01 -1.4126234054565430e+00 -1.5063358545303345e+00 2.1432459354400635e+00 5.2977430820465088e-01 2.2155392169952393e+00 1.3170585632324219e+00 2.3412060737609863e+00 1.7973577976226807e+00 2.0187451839447021e+00 9.6485912799835205e-01 2.3590407371520996e+00 1.4358054399490356e+00 2.0514068603515625e+00 1.9675551652908325e+00 2.1180176734924316e+00 1.0613982677459717e+00 2.4163274765014648e+00 1.1926636695861816e+00 -1.0679888725280762e+00 1.0579524040222168e+00 1.3598845005035400e+00 -2.1561372280120850e+00 3.0966243147850037e-01 -1.7835810184478760e+00 -2.0941178798675537e+00 -6.2308901548385620e-01 -1.4401221275329590e+00 -1.9688457250595093e+00 4.1958665847778320e-01 -2.2694711685180664e+00 -1.5296965837478638e+00 -1.3444606065750122e+00 2.8079763054847717e-01 4.3169021606445312e-01 7.1719855070114136e-01 -2.6505947113037109e-01 -1.0183528661727905e+00 -4.3903911113739014e-01 -4.0920591354370117e-01 2.0308399200439453e-01 9.0907418727874756e-01 -1.1215230450034142e-02 -8.2946479320526123e-01 -1.2177644968032837e+00 -6.8720710277557373e-01 4.3625506758689880e-01 3.5009747743606567e-01 
      </Weights>
      <Biases rows="15" cols="1">
        -9.7861593961715698e-01 2.1894051134586334e-01 2.4190455675125122e-01 -2.4097282886505127e+00 -1.5852789878845215e+00 2.1757376380264759e-03 -2.6673272252082825e-01 -1.7017962038516998e-01 -2.4014873504638672e+00 -3.3548104111105204e-03 -7.9857342643663287e-04 -2.7750320732593536e-02 -9.2943377792835236e-02 2.3468439280986786e-01 -2.6882135868072510e+00 
      </Biases>
    </Layer>
    <Layer ActivationFunction="1">
      <Weights rows="10" cols="15">
        3.0148016288876534e-02 1.8001526594161987e+00 -4.2227025032043457e+00 -8.1299841403961182e-02 -1.0915127992630005e+00 6.8998092412948608e-01 2.0433220863342285e+00 9.7246176004409790e-01 -1.9859527349472046e+00 1.4149084687232971e-01 8.4059327840805054e-01 3.7406003475189209e-01 -7.8084266185760498e-01 2.2800017893314362e-01 -1.2974400520324707e+00 -4.3966576457023621e-01 5.4322946071624756e-01 -2.5981688499450684e+00 -4.2984396219253540e-01 -3.1118437647819519e-01 -4.2857077717781067e-01 -4.4274267554283142e-01 -1.4009994268417358e+00 -8.3101205527782440e-02 3.2331634312868118e-02 1.6629867553710938e+00 2.6365604400634766e+00 -2.3631522655487061e+00 -9.7349786758422852e-01 -3.3301410079002380e-01 1.1847846508026123e+00 1.5028721652925014e-02 3.7260606884956360e-02 -1.8448421359062195e-01 2.9905623197555542e-01 -3.8693231344223022e-01 -3.6293778568506241e-02 -5.4181396961212158e-01 -1.6440674662590027e-01 -2.3562552034854889e-01 -1.6429275274276733e-01 3.6140319705009460e-01 -1.2091115713119507e+00 -4.3053063750267029e-01 -2.7352143079042435e-03 -3.5579290986061096e-01 -3.8710227012634277e+00 -6.3496476411819458e-01 -6.3183140754699707e-01 -1.5685355663299561e-01 -2.8699124231934547e-02 7.9073525965213776e-02 2.1642681956291199e-01 -3.7004236131906509e-02 7.1324950456619263e-01 7.4427467584609985e-01 5.5367761850357056e-01 -2.6900808811187744e+00 -9.7809040546417236e-01 1.5936377644538879e-01 -5.5480921268463135e-01 -1.8361923694610596e+00 1.1160880327224731e+00 -1.0479632616043091e+00 -9.3108129501342773e-01 3.8604676723480225e-01 3.7631398439407349e-01 -1.3448350429534912e+00 -1.7176864147186279e+00 -3.4135058522224426e-01 1.2818261981010437e-01 6.6432511806488037e-01 3.4430518746376038e-01 4.0590909123420715e-01 -1.2872101068496704e+00 8.0294400453567505e-01 1.4900708198547363e+00 7.6229208707809448e-01 1.3148674964904785e+00 1.1823029518127441e+00 7.0910668373107910e-01 2.8379723429679871e-01 3.1156378984451294e-01 1.3089792728424072e+00 -5.9344178438186646e-01 4.2151147127151489e-01 3.8317024707794189e-01 -8.5917872190475464e-01 8.2909631729125977e-01 1.3991645574569702e+00 -4.0195498615503311e-02 -3.0130088329315186e+00 1.3025807142257690e+00 -2.9080823063850403e-01 -3.3846926689147949e-01 1.8674300909042358e+00 5.6643480062484741e-01 -1.5135562419891357e+00 -2.0844465494155884e-01 6.9935667514801025e-01 1.4791663885116577e+00 2.1718621253967285e+00 -1.4213335514068604e+00 1.7899070978164673e+00 -4.7402414679527283e-01 -3.6100398749113083e-02 1.0370976924896240e+00 4.9624508619308472e-01 4.1884535551071167e-01 1.0615931749343872e+00 -5.2296304702758789e-01 -8.1392109394073486e-01 -1.4851329326629639e+00 3.3986267447471619e-01 2.9895269870758057e+00 -4.0009260177612305e-01 7.4935793876647949e-01 -1.2519539594650269e+00 1.6575674712657928e-01 -1.7157910764217377e-01 -4.3100303411483765e-01 9.1075664758682251e-01 -8.1590181216597557e-03 2.1476426720619202e-01 -3.4312808513641357e-01 -1.0754846781492233e-01 3.7707090377807617e-01 9.6728777885437012e-01 -1.7279578745365143e-01 -7.0145446062088013e-01 3.9494596421718597e-02 -8.8843747973442078e-02 -2.0734375715255737e-01 5.1879709959030151e-01 -1.3564214110374451e-01 9.0701961517333984e-01 -5.1006245613098145e-01 -7.7123783528804779e-02 7.9206395149230957e-01 4.9141743779182434e-01 2.5557890534400940e-01 4.8502123355865479e-01 2.1241679787635803e-01 4.7243800759315491e-01 -1.7589229345321655e-01 -1.1900556087493896e-01 -1.8380251526832581e-01 2.2609378397464752e-01 -1.9385519623756409e-01 6.2117028236389160e-01 
      </Weights>
      <Biases rows="10" cols="1">
        5.4839634895324707e-01 7.2357040643692017e-01 -8.9375101029872894e-02 1.2372289896011353e+00 4.3835747987031937e-02 -2.4348369240760803e-01 -9.8396956920623779e-02 -1.4845323562622070e+00 -2.2644705772399902e+00 -1.4408828020095825e+00 
      </Biases>
    </Layer>
    <Layer ActivationFunction="1">
      <Weights rows="5" cols="10">
        -1.5254663228988647e+00 -1.6851661205291748e+00 1.5595452487468719e-01 -1.0321557521820068e+00 -1.6277091503143311e+00 -1.9400916993618011e-01 -1.2107415199279785e+00 9.8468673229217529e-01 -2.1493604779243469e-01 -7.0268678665161133e-01 -4.8247504234313965e-01 -2.8236499428749084e-01 -4.6797472238540649e-01 -1.8210872411727905e+00 -4.0190044045448303e-01 -4.9667343497276306e-01 -2.6486105918884277e+00 7.5749880075454712e-01 1.4631439745426178e-01 3.2027378678321838e-01 2.8245612978935242e-01 9.6100497245788574e-01 -3.7803542613983154e-01 2.9272389411926270e-01 -2.0064562559127808e-01 -1.1675778627395630e+00 -7.1437098085880280e-02 -2.9079842567443848e+00 -1.0815640687942505e+00 -1.6296480894088745e+00 1.3025644421577454e-01 -1.0293307304382324e+00 8.1258252263069153e-02 -6.1900770664215088e-01 1.0808757692575455e-01 4.2586347460746765e-01 4.2396584153175354e-01 -1.8065223097801208e-01 9.2113442718982697e-02 -3.0047833919525146e-01 -3.2656446099281311e-01 -2.9367005452513695e-02 -9.5987834036350250e-02 7.2212016582489014e-01 -1.3670565187931061e-01 -4.8619881272315979e-02 -1.8961311876773834e-01 1.0364040136337280e+00 3.3022150397300720e-01 6.7864167690277100e-01 
      </Weights>
      <Biases rows="5" cols="1">
        1.9448342323303223e+00 2.6408915519714355e+00 2.3403568267822266e+00 3.2279658317565918e-01 -1.1034642219543457e+01 
      </Biases>
    </Layer>
    <Layer ActivationFunction="0">
      <Weights rows="1" cols="5">
        1.7928541898727417e+00 5.0142019987106323e-01 -1.4065542221069336e+00 -3.3732730150222778e-01 -6.3328438997268677e-01 
      </Weights>
      <Biases rows="1" cols="1">
        2.1337528228759766e+00 
      </Biases>
    </Layer>
  </Weights>
</MethodSetup>
